{"learner":{"attributes":{"scikit_learn":"{\"_estimator_type\": \"ranker\"}"},"feature_names":["skill_overlap","weighted_score"],"feature_types":["float","float"],"gradient_booster":{"model":{"cats":{"enc":[],"feature_segments":[],"sorted_idx":[]},"gbtree_model_param":{"num_parallel_tree":"1","num_trees":"300"},"iteration_indptr":[0,1,2,3,4,5,6,7,8,9,10,11,12,13,14,15,16,17,18,19,20,21,22,23,24,25,26,27,28,29,30,31,32,33,34,35,36,37,38,39,40,41,42,43,44,45,46,47,48,49,50,51,52,53,54,55,56,57,58,59,60,61,62,63,64,65,66,67,68,69,70,71,72,73,74,75,76,77,78,79,80,81,82,83,84,85,86,87,88,89,90,91,92,93,94,95,96,97,98,99,100,101,102,103,104,105,106,107,108,109,110,111,112,113,114,115,116,117,118,119,120,121,122,123,124,125,126,127,128,129,130,131,132,133,134,135,136,137,138,139,140,141,142,143,144,145,146,147,148,149,150,151,152,153,154,155,156,157,158,159,160,161,162,163,164,165,166,167,168,169,170,171,172,173,174,175,176,177,178,179,180,181,182,183,184,185,186,187,188,189,190,191,192,193,194,195,196,197,198,199,200,201,202,203,204,205,206,207,208,209,210,211,212,213,214,215,216,217,218,219,220,221,222,223,224,225,226,227,228,229,230,231,232,233,234,235,236,237,238,239,240,241,242,243,244,245,246,247,248,249,250,251,252,253,254,255,256,257,258,259,260,261,262,263,264,265,266,267,268,269,270,271,272,273,274,275,276,277,278,279,280,281,282,283,284,285,286,287,288,289,290,291,292,293,294,295,296,297,298,299,300],"tree_info":[0,0,0,0,0,0,0,0,0,0,0,0,0,0,0,0,0,0,0,0,0,0,0,0,0,0,0,0,0,0,0,0,0,0,0,0,0,0,0,0,0,0,0,0,0,0,0,0,0,0,0,0,0,0,0,0,0,0,0,0,0,0,0,0,0,0,0,0,0,0,0,0,0,0,0,0,0,0,0,0,0,0,0,0,0,0,0,0,0,0,0,0,0,0,0,0,0,0,0,0,0,0,0,0,0,0,0,0,0,0,0,0,0,0,0,0,0,0,0,0,0,0,0,0,0,0,0,0,0,0,0,0,0,0,0,0,0,0,0,0,0,0,0,0,0,0,0,0,0,0,0,0,0,0,0,0,0,0,0,0,0,0,0,0,0,0,0,0,0,0,0,0,0,0,0,0,0,0,0,0,0,0,0,0,0,0,0,0,0,0,0,0,0,0,0,0,0,0,0,0,0,0,0,0,0,0,0,0,0,0,0,0,0,0,0,0,0,0,0,0,0,0,0,0,0,0,0,0,0,0,0,0,0,0,0,0,0,0,0,0,0,0,0,0,0,0,0,0,0,0,0,0,0,0,0,0,0,0,0,0,0,0,0,0,0,0,0,0,0,0,0,0,0,0,0,0,0,0,0,0,0,0,0,0,0,0,0,0,0,0,0,0,0,0,0,0,0,0,0,0],"trees":[{"base_weights":[1.830091E-2,-5.24457E-1,5.8087814E-1,-7.6031166E-1,-1.9319113E-1,2.8021783E-1,7.80455E-1,-4.341032E-2,-2.932047E-2,-3.3726004E-1,-6.671093E-2,1.3122307E-1,3.4530458E-1,3.379303E-2,4.3559413E-2,-2.888248E-1,-4.4716763E-1,-1.7236467E-2,-1.2362435E-2,1.8769623E-1,-2.1886053E-2,2.9119042E-1,4.595174E-1,-3.939503E-1,-1.8459049E-1,-2.5141729E-2,-2.196232E-1,-9.229996E-2,1.2390166E-1,1.1307723E-1,4.4211015E-1,1.6319726E-2,1.6148019E-1,2.468766E-2,1.0459768E-3,-5.5866567E-3,-2.1211715E-2,2.2767389E-3,-1.31187355E-2,-1.9385134E-3,-1.534271E-2,1.1235072E-2,-7.1327696E-3,1.3523497E-2,3.2399705E-4,8.869182E-3,-8.691324E-3,2.5098516E-2,5.112277E-3,-1.2192999E-2,1.568089E-2],"categories":[],"categories_nodes":[],"categories_segments":[],"categories_sizes":[],"default_left":[0,0,0,0,0,0,0,0,0,0,0,0,0,0,0,0,0,0,0,0,0,0,0,0,0,0,0,0,0,0,0,0,0,0,0,0,0,0,0,0,0,0,0,0,0,0,0,0,0,0,0],"id":0,"left_children":[1,3,5,7,9,11,13,-1,-1,15,17,19,21,-1,-1,23,25,27,-1,29,-1,31,33,35,37,-1,39,41,43,45,47,-1,49,-1,-1,-1,-1,-1,-1,-1,-1,-1,-1,-1,-1,-1,-1,-1,-1,-1,-1],"loss_changes":[1.21328964E2,1.5655537E1,1.1488159E1,1.7012024E0,1.5346558E0,7.246523E-1,5.187073E-1,0E0,0E0,8.220339E-2,4.1332752E-1,9.095732E-1,2.0393181E-1,0E0,0E0,2.6020288E-1,2.029562E-2,4.1159225E-1,0E0,4.080292E-1,0E0,1.2906957E-1,2.2748566E-1,7.434559E-2,3.1871277E-1,0E0,4.8116237E-2,4.347976E-1,2.3128599E-1,3.9980605E-1,5.2998304E-2,0E0,7.2256386E-1,0E0,0E0,0E0,0E0,0E0,0E0,0E0,0E0,0E0,0E0,0E0,0E0,0E0,0E0,0E0,0E0,0E0,0E0],"parents":[2147483647,0,0,1,1,2,2,3,3,4,4,5,5,6,6,9,9,10,10,11,11,12,12,15,15,16,16,17,17,19,19,21,21,22,22,23,23,24,24,26,26,27,27,28,28,29,29,30,30,32,32],"right_children":[2,4,6,8,10,12,14,-1,-1,16,18,20,22,-1,-1,24,26,28,-1,30,-1,32,34,36,38,-1,40,42,44,46,48,-1,50,-1,-1,-1,-1,-1,-1,-1,-1,-1,-1,-1,-1,-1,-1,-1,-1,-1,-1],"split_conditions":[5.106355E-1,3.5789508E-1,6.708436E-1,2.554886E-1,4.2423114E-1,5.5477333E-1,7.762812E-1,-4.341032E-2,-2.932047E-2,4.0175796E-1,4.9829662E-1,5.482124E-1,6.394128E-1,3.379303E-2,4.3559413E-2,3.7877187E-1,4.1753888E-1,4.685754E-1,-1.2362435E-2,5.404498E-1,-2.1886053E-2,6.1510634E-1,6.672511E-1,3.593835E-1,3.8650107E-1,-2.5141729E-2,4.2135653E-1,4.3031797E-1,4.7656038E-1,5.334964E-1,5.4525715E-1,1.6319726E-2,6.199926E-1,2.468766E-2,1.0459768E-3,-5.5866567E-3,-2.1211715E-2,2.2767389E-3,-1.31187355E-2,-1.9385134E-3,-1.534271E-2,1.1235072E-2,-7.1327696E-3,1.3523497E-2,3.2399705E-4,8.869182E-3,-8.691324E-3,2.5098516E-2,5.112277E-3,-1.2192999E-2,1.568089E-2],"split_indices":[0,0,0,0,0,0,0,0,0,0,0,0,0,0,0,0,0,0,0,0,0,0,0,0,0,0,0,0,0,0,0,0,0,0,0,0,0,0,0,0,0,0,0,0,0,0,0,0,0,0,0],"split_type":[0,0,0,0,0,0,0,0,0,0,0,0,0,0,0,0,0,0,0,0,0,0,0,0,0,0,0,0,0,0,0,0,0,0,0,0,0,0,0,0,0,0,0,0,0,0,0,0,0,0,0],"sum_hessian":[3.9535504E2,2.0125648E2,1.9409854E2,1.1680119E2,8.445529E1,7.839755E1,1.1570099E2,6.9616394E1,4.7184795E1,3.8703297E1,4.5752E1,2.4752028E1,5.3645527E1,5.766987E1,5.8031124E1,2.938256E1,9.320736E0,3.6770817E1,8.98118E0,2.3126589E1,1.6254387E0,3.880786E1,1.48376665E1,1.3244921E1,1.6137638E1,6.5166583E0,2.8040779E0,2.4230173E1,1.2540646E1,1.8998758E1,4.12783E0,2.9330944E1,9.476916E0,1.3646687E1,1.1909796E0,1.737998E0,1.1506924E1,4.181433E0,1.1956205E1,1.3824171E0,1.4216609E0,2.8467548E0,2.1383417E1,4.9982796E0,7.5423656E0,1.5831931E1,3.166828E0,3.1041298E0,1.0237002E0,2.4217522E0,7.0551643E0],"tree_param":{"num_deleted":"0","num_feature":"2","num_nodes":"51","size_leaf_vector":"1"}},{"base_weights":[-3.7388573E-3,-5.0256425E-1,3.699019E-1,-6.42285E-1,-1.2409614E-1,1.6369839E-1,6.368234E-1,-7.649806E-1,-5.037626E-1,-4.08097E-2,-2.435167E-2,1.0996091E-1,3.4979686E-1,5.3708327E-1,4.0532123E-2,-4.4216286E-2,-3.5604462E-2,-2.846332E-3,-5.1581967E-1,2.0191234E-2,-1.4939943E-1,1.4411508E-1,-2.2438955E-1,4.246074E-1,-6.1190348E-2,5.8012533E-1,4.686355E-1,-5.998457E-1,-4.815726E-1,-1.0038963E-1,2.3158309E-1,-3.8208863E-1,4.803806E-2,1.677312E-2,2.0998958E-1,-3.2103366E-1,-6.445601E-2,9.00836E-3,4.344285E-1,4.639635E-3,-5.0862986E-3,5.415838E-1,3.984001E-2,-2.4511369E-2,5.2780026E-1,-2.2311723E-2,-3.588124E-2,-1.9388245E-2,-2.9041482E-2,-1.3127325E-3,-2.857686E-2,2.054249E-2,3.8641335E-3,-2.4758717E-2,-1.1536418E-2,7.225269E-4,5.7241516E-3,1.1490307E-2,-2.5321431E-3,1.5020897E-2,1.8909639E-3,-9.556952E-3,-2.7409038E-2,1.2748438E-4,-8.309762E-3,2.2505008E-2,1.2022904E-2,2.9262451E-2,1.4208336E-2,1.8850327E-2,2.8936416E-2],"categories":[],"categories_nodes":[],"categories_segments":[],"categories_sizes":[],"default_left":[0,0,0,0,0,0,0,0,0,0,0,0,0,0,0,0,0,0,0,0,0,0,0,0,0,0,0,0,0,0,0,0,0,0,0,0,0,0,0,0,0,0,0,0,0,0,0,0,0,0,0,0,0,0,0,0,0,0,0,0,0,0,0,0,0,0,0,0,0,0,0],"id":1,"left_children":[1,3,5,7,9,11,13,15,17,19,-1,21,23,25,-1,-1,-1,-1,27,29,31,33,35,37,39,41,43,45,47,49,51,53,55,57,59,61,63,-1,65,-1,-1,67,-1,-1,69,-1,-1,-1,-1,-1,-1,-1,-1,-1,-1,-1,-1,-1,-1,-1,-1,-1,-1,-1,-1,-1,-1,-1,-1,-1,-1],"loss_changes":[1.376099E2,1.6640373E1,2.3130196E1,3.5355453E0,2.594664E0,2.3566613E0,2.7482452E0,1.3034058E-1,5.702057E-1,4.7625458E-1,0E0,2.1711721E0,1.6618018E0,8.062363E-2,0E0,0E0,0E0,0E0,2.2605896E-2,1.2117286E0,1.2044027E0,1.4271264E0,2.5366867E-1,3.0088425E-2,6.6035084E-2,1.467781E-1,3.1743507E0,1.731453E-1,5.379944E-1,1.0463904E0,4.4506842E-1,9.0498924E-2,3.149667E-2,8.623245E-1,1.7372718E0,2.142669E-1,5.4532383E-2,0E0,2.152443E-2,0E0,0E0,5.2962875E-1,0E0,0E0,1.572609E-1,0E0,0E0,0E0,0E0,0E0,0E0,0E0,0E0,0E0,0E0,0E0,0E0,0E0,0E0,0E0,0E0,0E0,0E0,0E0,0E0,0E0,0E0,0E0,0E0,0E0,0E0],"parents":[2147483647,0,0,1,1,2,2,3,3,4,4,5,5,6,6,7,7,8,8,9,9,11,11,12,12,13,13,18,18,19,19,20,20,21,21,22,22,23,23,24,24,25,25,26,26,27,27,28,28,29,29,30,30,31,31,32,32,33,33,34,34,35,35,36,36,38,38,41,41,44,44],"right_children":[2,4,6,8,10,12,14,16,18,20,-1,22,24,26,-1,-1,-1,-1,28,30,32,34,36,38,40,42,44,46,48,50,52,54,56,58,60,62,64,-1,66,-1,-1,68,-1,-1,70,-1,-1,-1,-1,-1,-1,-1,-1,-1,-1,-1,-1,-1,-1,-1,-1,-1,-1,-1,-1,-1,-1,-1,-1,-1,-1],"split_conditions":[4.92541E-1,4.1816515E-1,7.20646E-1,2.9585615E-1,4.773578E-1,6.709878E-1,8.8551563E-1,1.2053052E-1,2.9793313E-1,4.5858368E-1,-2.435167E-2,6.52687E-1,7.142574E-1,7.9530656E-1,4.0532123E-2,-4.4216286E-2,-3.5604462E-2,-2.846332E-3,3.351199E-1,4.468065E-1,4.6739122E-1,5.545275E-1,6.6483396E-1,6.764517E-1,7.1602017E-1,7.8984606E-1,7.973717E-1,3.16257E-1,3.8153136E-1,4.452763E-1,4.5221135E-1,4.6397746E-1,4.7520602E-1,5.066705E-1,6.18125E-1,6.6071266E-1,6.6845596E-1,9.00836E-3,7.0982736E-1,4.639635E-3,-5.0862986E-3,7.77826E-1,3.984001E-2,-2.4511369E-2,8.259325E-1,-2.2311723E-2,-3.588124E-2,-1.9388245E-2,-2.9041482E-2,-1.3127325E-3,-2.857686E-2,2.054249E-2,3.8641335E-3,-2.4758717E-2,-1.1536418E-2,7.225269E-4,5.7241516E-3,1.1490307E-2,-2.5321431E-3,1.5020897E-2,1.8909639E-3,-9.556952E-3,-2.7409038E-2,1.2748438E-4,-8.309762E-3,2.2505008E-2,1.2022904E-2,2.9262451E-2,1.4208336E-2,1.8850327E-2,2.8936416E-2],"split_indices":[1,1,1,1,1,1,1,1,1,1,0,1,1,1,0,0,0,0,1,1,1,1,1,1,1,1,1,1,1,1,1,1,1,1,1,1,1,0,1,0,0,1,0,0,1,0,0,0,0,0,0,0,0,0,0,0,0,0,0,0,0,0,0,0,0,0,0,0,0,0,0],"split_type":[0,0,0,0,0,0,0,0,0,0,0,0,0,0,0,0,0,0,0,0,0,0,0,0,0,0,0,0,0,0,0,0,0,0,0,0,0,0,0,0,0,0,0,0,0,0,0,0,0,0,0,0,0,0,0,0,0,0,0,0,0,0,0,0,0,0,0,0,0,0,0],"sum_hessian":[7.363263E2,3.1518997E2,4.2113632E2,2.296953E2,8.5494675E1,2.3850137E2,1.8263495E2,1.19407845E2,1.1028746E2,7.044213E1,1.5052542E1,1.8629735E2,5.220402E1,1.1864465E2,6.39903E1,3.184119E1,8.756666E1,3.0480506E0,1.072394E2,4.562569E1,2.4816442E1,1.6954697E2,1.6750385E1,4.4136818E1,8.067205E0,6.8250946E1,5.0393703E1,2.627002E1,8.096938E1,2.9387661E1,1.623803E1,1.0961992E1,1.3854451E1,5.823246E1,1.1131451E2,9.813203E0,6.9371824E0,2.4520483E0,4.168477E1,1.4124714E0,6.6547337E0,6.091506E1,7.335891E0,2.5053031E0,4.78884E1,1.3479006E1,1.2791015E1,4.414997E1,3.6819416E1,2.6304394E1,3.0832663E0,6.7422276E0,9.495801E0,4.974158E0,5.987834E0,1.0011288E1,3.8431635E0,1.3419227E1,4.4813232E1,7.249391E1,3.882059E1,7.4146147E0,2.398588E0,4.7703547E0,2.1668277E0,3.7346905E1,4.3378654E0,5.099185E1,9.923207E0,1.4211651E1,3.367675E1],"tree_param":{"num_deleted":"0","num_feature":"2","num_nodes":"71","size_leaf_vector":"1"}},{"base_weights":[1.6065901E-2,-3.8380414E-1,3.6457643E-1,-6.817476E-1,-2.357837E-1,1.6592328E-1,5.4563606E-1,-4.400342E-2,-5.7978326E-1,-3.3306044E-1,-1.1906188E-1,1.7646693E-1,-1.5130663E-1,4.4410348E-1,3.4672443E-2,-7.6072E-3,-5.9729993E-1,-1.6157817E-3,-3.4218097E-1,1.852136E-2,-1.4324087E-1,1.5967695E-1,1.7567022E-2,-3.866991E-3,-9.974618E-3,4.6428362E-1,1.4002769E-1,-5.533546E-1,-3.646801E-2,-3.8942787E-1,-2.7834785E-1,-6.2302683E-2,-1.6803156E-1,2.4410795E-1,1.2706809E-1,4.396922E-1,4.068603E-2,-1.8181968E-4,1.2628305E-2,-2.9695202E-2,1.5108056E-2,-1.1424561E-2,-2.0756196E-2,-1.1189851E-3,-1.8750673E-2,-1.1269301E-2,7.798674E-3,-1.086873E-2,-4.0058494E-3,7.3020137E-3,2.160864E-2,-3.6943161E-3,8.784451E-3,2.3328422E-2,-1.1958915E-2],"categories":[],"categories_nodes":[],"categories_segments":[],"categories_sizes":[],"default_left":[0,0,0,0,0,0,0,0,0,0,0,0,0,0,0,0,0,0,0,0,0,0,0,0,0,0,0,0,0,0,0,0,0,0,0,0,0,0,0,0,0,0,0,0,0,0,0,0,0,0,0,0,0,0,0],"id":2,"left_children":[1,3,5,7,9,11,13,-1,15,17,19,21,23,25,-1,-1,27,-1,29,-1,31,33,-1,-1,-1,35,37,39,-1,41,43,45,47,49,51,53,-1,-1,-1,-1,-1,-1,-1,-1,-1,-1,-1,-1,-1,-1,-1,-1,-1,-1,-1],"loss_changes":[9.721021E1,1.4166157E1,1.3314346E1,1.6594543E0,2.4419928E0,6.2590456E-1,2.6116753E0,0E0,4.618988E-1,3.1440926E-1,1.2473482E0,4.5433283E-1,7.029295E-3,6.5971947E-1,0E0,0E0,5.82695E-3,0E0,2.3861122E-1,0E0,1.839217E-1,4.1073227E-1,0E0,0E0,0E0,5.902405E-1,1.4290625E-1,2.1595078E0,0E0,1.6821861E-1,1.2892742E0,9.003469E-1,3.017497E-1,7.4133253E-1,1.1642712E0,2.031849E0,0E0,0E0,0E0,0E0,0E0,0E0,0E0,0E0,0E0,0E0,0E0,0E0,0E0,0E0,0E0,0E0,0E0,0E0,0E0],"parents":[2147483647,0,0,1,1,2,2,3,3,4,4,5,5,6,6,8,8,9,9,10,10,11,11,12,12,13,13,16,16,18,18,20,20,21,21,25,25,26,26,27,27,29,29,30,30,31,31,32,32,33,33,34,34,35,35],"right_children":[2,4,6,8,10,12,14,-1,16,18,20,22,24,26,-1,-1,28,-1,30,-1,32,34,-1,-1,-1,36,38,40,-1,42,44,46,48,50,52,54,-1,-1,-1,-1,-1,-1,-1,-1,-1,-1,-1,-1,-1,-1,-1,-1,-1,-1,-1],"split_conditions":[5.1376146E-1,3.012854E-1,6.9336635E-1,1.4438193E-1,4.4253364E-1,6.8830603E-1,8.4313834E-1,-4.400342E-2,1.4979956E-1,3.04303E-1,4.452763E-1,6.764517E-1,6.9248E-1,8.339635E-1,3.4672443E-2,-7.6072E-3,2.7455646E-1,-1.6157817E-3,3.911834E-1,1.852136E-2,4.5858368E-1,5.6425256E-1,1.7567022E-2,-3.866991E-3,-9.974618E-3,8.259325E-1,8.382155E-1,2.7087986E-1,-3.646801E-2,3.203491E-1,4.040974E-1,4.5221135E-1,4.9438888E-1,5.4509985E-1,5.8750486E-1,8.149999E-1,4.068603E-2,-1.8181968E-4,1.2628305E-2,-2.9695202E-2,1.5108056E-2,-1.1424561E-2,-2.0756196E-2,-1.1189851E-3,-1.8750673E-2,-1.1269301E-2,7.798674E-3,-1.086873E-2,-4.0058494E-3,7.3020137E-3,2.160864E-2,-3.6943161E-3,8.784451E-3,2.3328422E-2,-1.1958915E-2],"split_indices":[1,1,1,1,1,1,1,0,1,1,1,1,1,1,0,0,1,0,1,0,1,1,0,0,0,1,1,1,0,1,1,1,1,1,1,1,0,0,0,0,0,0,0,0,0,0,0,0,0,0,0,0,0,0,0],"split_type":[0,0,0,0,0,0,0,0,0,0,0,0,0,0,0,0,0,0,0,0,0,0,0,0,0,0,0,0,0,0,0,0,0,0,0,0,0,0,0,0,0,0,0,0,0,0,0,0,0,0,0,0,0,0,0],"sum_hessian":[6.9554877E2,3.2386032E2,3.7168842E2,1.0629608E2,2.1756424E2,1.7814717E2,1.9354126E2,3.350252E1,7.2793564E1,1.1765571E2,9.990853E1,1.7284608E2,5.301089E0,1.171058E2,7.643546E1,3.2455137E0,6.954805E1,3.5967762E0,1.1405893E2,4.028748E0,9.587978E1,1.5945004E2,1.3396038E1,3.118743E0,2.182346E0,1.0932362E2,7.782174E0,5.6077484E1,1.3470562E1,6.2613804E1,5.1445126E1,2.3305075E1,7.257471E1,4.261784E1,1.1683221E2,1.0424569E2,5.077934E0,3.843427E0,3.9387472E0,5.383178E1,2.2457037E0,9.982789E0,5.2631016E1,1.4439966E1,3.700516E1,1.3320325E1,9.98475E0,4.5541477E1,2.703323E1,2.9178867E1,1.3438973E1,2.2659393E1,9.417281E1,1.0057663E2,3.6690612E0],"tree_param":{"num_deleted":"0","num_feature":"2","num_nodes":"55","size_leaf_vector":"1"}},{"base_weights":[-2.3987624E-3,-3.554599E-1,3.1498918E-1,-6.971979E-1,-2.09956E-1,9.434477E-2,4.860709E-1,-4.5112114E-2,-5.612932E-1,-3.30997E-1,-1.1944858E-1,2.0397285E-1,3.9710872E-2,3.7296626E-1,3.0558366E-2,-4.9231008E-1,-4.1401993E-2,-3.8867673E-1,-2.5003865E-1,-9.408521E-2,-2.4525884E-1,1.1680638E-1,2.503707E-2,-1.8766075E-2,8.378892E-2,3.918499E-1,-1.3691283E-2,-5.4326874E-1,5.946629E-3,-2.078774E-1,-4.9628216E-1,-9.647297E-2,-4.0935546E-1,-1.18456446E-1,7.683254E-2,-2.3549303E-2,-1.4880192E-1,2.1810288E-2,7.811567E-2,3.0935863E-2,6.438756E-2,3.686422E-1,3.5141956E-2,-1.4079057E-3,-2.8235598E-2,-1.8027445E-2,-9.987145E-4,-3.926567E-2,-2.0755429E-2,-9.0145385E-3,1.3214141E-2,-3.2084417E-2,-1.533317E-2,-3.8345286E-3,-1.3851737E-2,6.041986E-3,1.1136188E-3,-3.409978E-3,-2.0088715E-2,6.0002087E-3,-5.559245E-3,-7.4477266E-3,5.0295545E-3,1.986783E-2,6.5892027E-3],"categories":[],"categories_nodes":[],"categories_segments":[],"categories_sizes":[],"default_left":[0,0,0,0,0,0,0,0,0,0,0,0,0,0,0,0,0,0,0,0,0,0,0,0,0,0,0,0,0,0,0,0,0,0,0,0,0,0,0,0,0,0,0,0,0,0,0,0,0,0,0,0,0,0,0,0,0,0,0,0,0,0,0,0,0],"id":3,"left_children":[1,3,5,7,9,11,13,-1,15,17,19,21,23,25,-1,27,-1,29,31,33,35,37,-1,-1,39,41,-1,43,-1,45,47,49,51,53,55,-1,57,-1,59,-1,61,63,-1,-1,-1,-1,-1,-1,-1,-1,-1,-1,-1,-1,-1,-1,-1,-1,-1,-1,-1,-1,-1,-1,-1],"loss_changes":[7.793321E1,1.6224442E1,1.3779221E1,2.2213478E0,2.5058327E0,9.5735586E-1,2.6874657E0,0E0,7.242832E-1,3.6436653E-1,4.0612662E-1,1.3221426E0,2.0222194E0,1.4603148E0,0E0,1.6638079E0,0E0,9.846573E-1,1.0351751E0,4.8213518E-1,4.077109E-1,4.9185663E-1,0E0,0E0,9.8960906E-1,5.207138E-1,0E0,5.0954247E-1,0E0,6.4064467E-1,4.7949505E-1,7.635222E-1,3.1023479E-1,6.3962734E-1,3.279224E-2,0E0,3.1589714E-1,0E0,3.2400906E-1,0E0,7.629217E-1,6.457596E-1,0E0,0E0,0E0,0E0,0E0,0E0,0E0,0E0,0E0,0E0,0E0,0E0,0E0,0E0,0E0,0E0,0E0,0E0,0E0,0E0,0E0,0E0,0E0],"parents":[2147483647,0,0,1,1,2,2,3,3,4,4,5,5,6,6,8,8,9,9,10,10,11,11,12,12,13,13,15,15,17,17,18,18,19,19,20,20,21,21,24,24,25,25,27,27,29,29,30,30,31,31,32,32,33,33,34,34,36,36,38,38,40,40,41,41],"right_children":[2,4,6,8,10,12,14,-1,16,18,20,22,24,26,-1,28,-1,30,32,34,36,38,-1,-1,40,42,-1,44,-1,46,48,50,52,54,56,-1,58,-1,60,-1,62,64,-1,-1,-1,-1,-1,-1,-1,-1,-1,-1,-1,-1,-1,-1,-1,-1,-1,-1,-1,-1,-1,-1,-1],"split_conditions":[5.2184147E-1,2.9585615E-1,6.764517E-1,1.6062431E-1,4.1263837E-1,5.775843E-1,7.973717E-1,-4.5112114E-2,2.7455646E-1,3.6906764E-1,5.066705E-1,5.6696653E-1,5.8750486E-1,7.9530656E-1,3.0558366E-2,2.7087986E-1,-4.1401993E-2,3.203491E-1,3.928266E-1,4.9438888E-1,5.090359E-1,5.2428687E-1,2.503707E-2,-1.8766075E-2,5.895689E-1,7.8984606E-1,-1.3691283E-2,1.6419691E-1,5.946629E-3,3.0999002E-1,3.351199E-1,3.911834E-1,3.960218E-1,4.7927812E-1,5.000112E-1,-2.3549303E-2,5.1919705E-1,2.1810288E-2,5.606825E-1,3.0935863E-2,5.993939E-1,7.77826E-1,3.5141956E-2,-1.4079057E-3,-2.8235598E-2,-1.8027445E-2,-9.987145E-4,-3.926567E-2,-2.0755429E-2,-9.0145385E-3,1.3214141E-2,-3.2084417E-2,-1.533317E-2,-3.8345286E-3,-1.3851737E-2,6.041986E-3,1.1136188E-3,-3.409978E-3,-2.0088715E-2,6.0002087E-3,-5.559245E-3,-7.4477266E-3,5.0295545E-3,1.986783E-2,6.5892027E-3],"split_indices":[1,1,1,1,1,1,1,0,1,1,1,1,1,1,0,1,0,1,1,1,1,1,0,0,1,1,0,1,0,1,1,1,1,1,1,0,1,0,1,0,1,1,0,0,0,0,0,0,0,0,0,0,0,0,0,0,0,0,0,0,0,0,0,0,0],"split_type":[0,0,0,0,0,0,0,0,0,0,0,0,0,0,0,0,0,0,0,0,0,0,0,0,0,0,0,0,0,0,0,0,0,0,0,0,0,0,0,0,0,0,0,0,0,0,0,0,0,0,0,0,0,0,0,0,0,0,0,0,0,0,0,0,0],"sum_hessian":[6.93477E2,3.2823248E2,3.6524454E2,9.688701E1,2.3134547E2,1.6019377E2,2.0505075E2,3.6372177E1,6.051483E1,9.784046E1,1.3350502E2,5.2371655E1,1.0782211E2,1.0977777E2,9.527298E1,5.034163E1,1.0173202E1,5.4914814E1,4.2925648E1,1.1256061E2,2.0944405E1,4.155869E1,1.0812967E1,9.630243E0,9.819187E1,1.07046616E2,2.731155E0,4.6570316E1,3.7713134E0,2.1582916E1,3.3331898E1,2.2674862E1,2.0250788E1,9.878216E1,1.3778451E1,5.1079593E0,1.5836445E1,3.3802116E0,3.817848E1,2.3555295E0,9.583634E1,1.0164658E2,5.40003E0,1.9536113E0,4.4616703E1,1.1400883E1,1.0182034E1,5.406548E0,2.792535E1,1.880578E1,3.8690817E0,4.5984607E0,1.5652328E1,7.9363304E1,1.9418856E1,6.9543824E0,6.824068E0,1.297267E1,2.8637748E0,3.1560766E1,6.6177115E0,1.3451899E1,8.2384445E1,9.005195E1,1.1594637E1],"tree_param":{"num_deleted":"0","num_feature":"2","num_nodes":"65","size_leaf_vector":"1"}},{"base_weights":[7.479595E-4,-3.8923475E-1,2.9002774E-1,-7.06356E-1,-2.4815582E-1,1.8990311E-1,5.7410276E-1,-4.3572273E-2,-6.102011E-1,-3.6396837E-1,-1.390658E-1,-1.7268462E-2,2.4044478E-1,4.4799328E-1,2.9894054E-2,1.1460847E-2,-3.198203E-2,-2.1081191E-1,-4.0458065E-1,-1.09650806E-1,-2.6070207E-1,1.6928259E-1,-4.652201E-2,2.539479E-1,-2.0243432E-2,3.451787E-2,3.139363E-1,-3.1696874E-1,2.7237503E-2,-5.406418E-1,-3.2222897E-1,-1.4957339E-1,1.814198E-2,-3.0151728E-1,-4.717383E-3,1.9966413E-3,1.1192398E-2,-9.870478E-3,-3.2165688E-2,2.3336193E-1,2.9156042E-2,-9.674762E-3,1.2074122E-1,-1.2024304E-2,4.3601078E-1,2.449646E-3,-1.9838402E-2,-2.4161674E-3,4.514241E-3,-1.9506311E-2,-3.1406462E-2,-1.2315834E-2,-2.5683198E-2,4.3803334E-4,-8.816905E-3,-9.207471E-3,-1.7110657E-2,3.8473923E-3,-2.9530006E-3,1.245154E-2,-1.18614845E-2,2.0033572E-2,-2.8033343E-3,3.3173054E-2,1.5543583E-2],"categories":[],"categories_nodes":[],"categories_segments":[],"categories_sizes":[],"default_left":[0,0,0,0,0,0,0,0,0,0,0,0,0,0,0,0,0,0,0,0,0,0,0,0,0,0,0,0,0,0,0,0,0,0,0,0,0,0,0,0,0,0,0,0,0,0,0,0,0,0,0,0,0,0,0,0,0,0,0,0,0,0,0,0,0],"id":4,"left_children":[1,3,5,7,9,11,13,-1,15,17,19,21,23,25,-1,-1,-1,27,29,31,33,35,37,39,41,-1,43,45,47,49,51,53,-1,55,-1,-1,-1,-1,57,59,-1,-1,61,-1,63,-1,-1,-1,-1,-1,-1,-1,-1,-1,-1,-1,-1,-1,-1,-1,-1,-1,-1,-1,-1],"loss_changes":[7.356458E1,1.2249096E1,1.0539398E1,8.16967E-1,2.3971357E0,2.9182577E0,2.3237228E-2,0E0,1.5558777E0,4.9539852E-1,3.3416438E-1,3.1082866E-1,7.9292107E-1,4.1320944E-1,0E0,0E0,0E0,5.5586624E-1,6.4041424E-1,1.6268474E0,1.00676775E-1,4.569556E-2,9.930145E-2,1.3062477E0,3.1518814E-1,0E0,1.0738708E0,4.5911086E-1,4.056611E-2,9.64942E-2,5.6762123E-1,3.3031476E-1,0E0,7.745266E-3,0E0,0E0,0E0,0E0,1.387412E-1,1.5484514E0,0E0,0E0,3.7896216E-1,0E0,1.3784647E-1,0E0,0E0,0E0,0E0,0E0,0E0,0E0,0E0,0E0,0E0,0E0,0E0,0E0,0E0,0E0,0E0,0E0,0E0,0E0,0E0],"parents":[2147483647,0,0,1,1,2,2,3,3,4,4,5,5,6,6,8,8,9,9,10,10,11,11,12,12,13,13,17,17,18,18,19,19,20,20,21,21,22,22,23,23,24,24,26,26,27,27,28,28,29,29,30,30,31,31,33,33,38,38,39,39,42,42,44,44],"right_children":[2,4,6,8,10,12,14,-1,16,18,20,22,24,26,-1,-1,-1,28,30,32,34,36,38,40,42,-1,44,46,48,50,52,54,-1,56,-1,-1,-1,-1,58,60,-1,-1,62,-1,64,-1,-1,-1,-1,-1,-1,-1,-1,-1,-1,-1,-1,-1,-1,-1,-1,-1,-1,-1,-1],"split_conditions":[4.9438888E-1,2.9585615E-1,7.8984606E-1,1.4438193E-1,4.1263837E-1,5.4509985E-1,8.259325E-1,-4.3572273E-2,1.4979956E-1,3.203491E-1,4.7927812E-1,5.000112E-1,7.7451116E-1,7.9530656E-1,2.9894054E-2,1.1460847E-2,-3.198203E-2,3.16257E-1,3.656874E-1,4.7520602E-1,4.92541E-1,4.981981E-1,5.029608E-1,7.532131E-1,7.817639E-1,3.451787E-2,7.973717E-1,2.9793313E-1,3.1849733E-1,3.4113362E-1,4.012584E-1,4.2380235E-1,1.814198E-2,4.8636615E-1,-4.717383E-3,1.9966413E-3,1.1192398E-2,-9.870478E-3,5.090359E-1,7.4255234E-1,2.9156042E-2,-9.674762E-3,7.8816795E-1,-1.2024304E-2,8.0417866E-1,2.449646E-3,-1.9838402E-2,-2.4161674E-3,4.514241E-3,-1.9506311E-2,-3.1406462E-2,-1.2315834E-2,-2.5683198E-2,4.3803334E-4,-8.816905E-3,-9.207471E-3,-1.7110657E-2,3.8473923E-3,-2.9530006E-3,1.245154E-2,-1.18614845E-2,2.0033572E-2,-2.8033343E-3,3.3173054E-2,1.5543583E-2],"split_indices":[1,1,1,1,1,1,1,0,1,1,1,1,1,1,0,0,0,1,1,1,1,1,1,1,1,0,1,1,1,1,1,1,0,1,0,0,0,0,1,1,0,0,1,0,1,0,0,0,0,0,0,0,0,0,0,0,0,0,0,0,0,0,0,0,0],"split_type":[0,0,0,0,0,0,0,0,0,0,0,0,0,0,0,0,0,0,0,0,0,0,0,0,0,0,0,0,0,0,0,0,0,0,0,0,0,0,0,0,0,0,0,0,0,0,0,0,0,0,0,0,0,0,0,0,0,0,0,0,0,0,0,0,0],"sum_hessian":[6.5008606E2,2.7670718E2,3.733789E2,8.39639E1,1.9274327E2,2.7730792E2,9.607101E1,2.7936487E1,5.6027412E1,9.235772E1,1.0038555E2,5.4513607E1,2.227943E2,1.8388304E1,7.76827E1,1.668444E0,5.435897E1,2.0654945E1,7.1702774E1,8.236813E1,1.8017422E1,6.7407618E0,4.7772846E1,2.1184691E2,1.0947399E1,5.070864E0,1.331744E1,1.4055464E1,6.5994816E0,2.4936974E1,4.67658E1,7.658094E1,5.7871914E0,1.3815321E1,4.2021003E0,2.513716E0,4.2270455E0,3.04271E0,4.4730137E1,2.0098643E2,1.0860466E1,4.744531E0,6.202868E0,2.228108E0,1.1089332E1,2.5852928E0,1.1470171E1,3.108068E0,3.4914136E0,1.1173331E1,1.3763642E1,3.5124207E1,1.1641595E1,1.1170637E1,6.541031E1,4.979458E0,8.835863E0,8.476961E0,3.6253174E1,1.9496565E2,6.020785E0,1.911057E0,4.291811E0,2.4089983E0,8.680334E0],"tree_param":{"num_deleted":"0","num_feature":"2","num_nodes":"65","size_leaf_vector":"1"}},{"base_weights":[-1.150238E-2,-5.130511E-1,2.6812905E-1,-4.1119445E-2,-3.526209E-1,7.096291E-2,4.823986E-1,-5.227418E-1,-2.5715512E-1,3.2734156E-2,2.4140683E-1,3.8519543E-1,5.868986E-1,4.93347E-3,-5.51046E-1,-1.7239927E-1,-5.0189966E-1,4.581167E-2,-1.8320596E-2,2.6673016E-1,7.194719E-2,4.4975463E-1,1.7764428E-1,5.2833915E-1,3.601018E-2,-3.053555E-1,-2.860324E-2,-2.182125E-1,-2.0001775E-2,-6.3396543E-1,-2.6999062E-1,7.5542997E-4,1.5500444E-1,1.8188734E-2,2.3784456E-1,-9.5850707E-4,8.654661E-3,4.007536E-1,3.2507703E-2,-1.5468652E-2,2.8853366E-1,5.593234E-1,5.8902084E-4,-1.8328028E-2,-7.12837E-3,-5.7238066E-3,-2.2082796E-2,4.221273E-3,-1.0531658E-2,-1.4616728E-2,-3.5653304E-2,2.0545287E-2,-2.6288195E-2,9.939101E-4,-1.31423175E-2,6.5237037E-3,2.229973E-2,2.047845E-3,1.3921072E-2,2.3726597E-2,3.4038813E-3,4.728187E-3,-9.237619E-3,2.4658617E-2,1.0976567E-2,3.6059894E-2,2.4342956E-2],"categories":[],"categories_nodes":[],"categories_segments":[],"categories_sizes":[],"default_left":[0,0,0,0,0,0,0,0,0,0,0,0,0,0,0,0,0,0,0,0,0,0,0,0,0,0,0,0,0,0,0,0,0,0,0,0,0,0,0,0,0,0,0,0,0,0,0,0,0,0,0,0,0,0,0,0,0,0,0,0,0,0,0,0,0,0,0],"id":5,"left_children":[1,3,5,-1,7,9,11,13,15,17,19,21,23,-1,25,27,29,31,-1,33,35,37,39,41,-1,43,-1,45,47,49,51,53,55,-1,57,-1,-1,59,-1,61,63,65,-1,-1,-1,-1,-1,-1,-1,-1,-1,-1,-1,-1,-1,-1,-1,-1,-1,-1,-1,-1,-1,-1,-1,-1,-1],"loss_changes":[9.2065605E1,1.1371052E1,1.7772362E1,0E0,2.4068966E0,1.4300084E0,1.8238869E0,1.0266342E0,2.0334635E0,9.637025E-1,1.5362525E-1,1.3600817E0,3.637848E-1,0E0,9.912872E-2,5.3627133E-1,6.179533E-1,8.6843234E-1,0E0,1.0654688E-2,6.4190626E-2,5.3796005E-1,5.858496E-1,1.1137562E0,0E0,1.0743856E-2,0E0,1.3271227E0,3.959926E-1,2.1512747E-1,2.147511E0,6.4025545E-1,3.0986977E-1,0E0,2.2510087E-1,0E0,0E0,1.6353998E0,0E0,2.196141E-1,1.3598001E-1,4.23254E-1,0E0,0E0,0E0,0E0,0E0,0E0,0E0,0E0,0E0,0E0,0E0,0E0,0E0,0E0,0E0,0E0,0E0,0E0,0E0,0E0,0E0,0E0,0E0,0E0,0E0],"parents":[2147483647,0,0,1,1,2,2,4,4,5,5,6,6,7,7,8,8,9,9,10,10,11,11,12,12,14,14,15,15,16,16,17,17,19,19,20,20,21,21,22,22,23,23,25,25,27,27,28,28,29,29,30,30,31,31,32,32,34,34,37,37,39,39,40,40,41,41],"right_children":[2,4,6,-1,8,10,12,14,16,18,20,22,24,-1,26,28,30,32,-1,34,36,38,40,42,-1,44,-1,46,48,50,52,54,56,-1,58,-1,-1,60,-1,62,64,66,-1,-1,-1,-1,-1,-1,-1,-1,-1,-1,-1,-1,-1,-1,-1,-1,-1,-1,-1,-1,-1,-1,-1,-1,-1],"split_conditions":[4.5888826E-1,2.9250047E-1,6.708436E-1,-4.1119445E-2,3.651135E-1,6.199926E-1,7.762812E-1,2.9650185E-1,4.4069126E-1,6.1510634E-1,6.6351914E-1,7.426511E-1,9.0106994E-1,4.93347E-3,3.0410996E-1,4.1753888E-1,4.508517E-1,5.642701E-1,-1.8320596E-2,6.250939E-1,6.672511E-1,7.2564477E-1,7.5514424E-1,8.933277E-1,3.601018E-2,2.9948315E-1,-2.860324E-2,3.9797974E-1,4.3031797E-1,4.4364253E-1,4.518176E-1,5.5990493E-1,6.131894E-1,1.8188734E-2,6.3546884E-1,-9.5850707E-4,8.654661E-3,7.162418E-1,3.2507703E-2,7.5338566E-1,7.570939E-1,8.0250764E-1,5.8902084E-4,-1.8328028E-2,-7.12837E-3,-5.7238066E-3,-2.2082796E-2,4.221273E-3,-1.0531658E-2,-1.4616728E-2,-3.5653304E-2,2.0545287E-2,-2.6288195E-2,9.939101E-4,-1.31423175E-2,6.5237037E-3,2.229973E-2,2.047845E-3,1.3921072E-2,2.3726597E-2,3.4038813E-3,4.728187E-3,-9.237619E-3,2.4658617E-2,1.0976567E-2,3.6059894E-2,2.4342956E-2],"split_indices":[0,0,0,0,0,0,0,0,0,0,0,0,0,0,0,0,0,0,0,0,0,0,0,0,0,0,0,0,0,0,0,0,0,0,0,0,0,0,0,0,0,0,0,0,0,0,0,0,0,0,0,0,0,0,0,0,0,0,0,0,0,0,0,0,0,0,0],"split_type":[0,0,0,0,0,0,0,0,0,0,0,0,0,0,0,0,0,0,0,0,0,0,0,0,0,0,0,0,0,0,0,0,0,0,0,0,0,0,0,0,0,0,0,0,0,0,0,0,0,0,0,0,0,0,0,0,0,0,0,0,0,0,0,0,0,0,0],"sum_hessian":[6.544641E2,2.3397333E2,4.204908E2,7.849498E1,1.5547835E2,2.1967859E2,2.0081223E2,5.4278267E1,1.0120008E2,1.8040723E2,3.9271362E1,1.0646625E2,9.434598E1,2.2562754E0,5.202199E1,7.643484E1,2.4765238E1,1.7554106E2,4.8661556E0,3.3666397E1,5.604968E0,8.0316635E1,2.6149609E1,6.899886E1,2.5347115E1,5.3234553E0,4.669854E1,5.8436108E1,1.7998734E1,1.4674711E1,1.0090526E1,1.24978195E2,5.056287E1,5.0630097E0,2.8603386E1,3.3750381E0,2.22993E0,6.6946785E1,1.3369851E1,9.852341E0,1.6297268E1,6.5016266E1,3.9825976E0,2.9591198E0,2.3643358E0,4.0941048E1,1.7495062E1,1.19885645E1,6.0101686E0,3.6417847E0,1.1032927E1,2.5897653E0,7.5007606E0,1.1738704E2,7.591156E0,4.79676E1,2.5952697E0,5.2309694E0,2.3372416E1,5.44458E1,1.2500988E1,6.2386694E0,3.6136713E0,2.5594819E0,1.3737786E1,1.7336535E1,4.7679733E1],"tree_param":{"num_deleted":"0","num_feature":"2","num_nodes":"67","size_leaf_vector":"1"}},{"base_weights":[-1.0249749E-2,-3.7768096E-1,2.768311E-1,-6.431218E-1,-1.6560203E-1,4.9941655E-2,3.9734492E-1,-4.068261E-2,-4.654894E-1,-2.1357232E-1,-8.427231E-2,2.522541E-1,3.01851E-2,3.0378723E-1,5.3528494E-1,-4.1646633E-1,-3.18412E-2,-1.729074E-1,-3.6912397E-1,1.14751376E-1,-2.3508051E-1,7.329428E-3,1.6376143E-2,-1.7280409E-1,6.340843E-2,3.2393667E-1,1.9183941E-1,3.80343E-2,5.0240725E-1,-4.373628E-1,-2.5962448E-1,-2.4157593E-1,5.383039E-2,-2.6708072E-2,-2.7767047E-1,8.946373E-3,2.1953242E-1,-2.000856E-2,-1.637513E-1,-2.795103E-2,-3.1469766E-2,2.3974558E-2,4.032724E-2,2.9499412E-1,2.7557403E-2,-8.507287E-3,2.5511917E-1,8.186208E-5,5.242291E-1,-1.6531035E-2,-2.513636E-2,-4.6215793E-3,-1.5624805E-2,-8.984244E-3,-1.891772E-2,1.2627891E-2,-9.725585E-3,-4.4133007E-3,-2.2128625E-2,1.1678895E-2,-2.507526E-2,1.2522432E-2,6.6186213E-3,3.517959E-3,-1.748708E-2,-9.85574E-3,8.516229E-3,-5.648555E-3,4.458713E-3,1.681428E-2,6.1955693E-4,1.4198593E-2,1.5791593E-3,2.095992E-2,3.0344898E-2],"categories":[],"categories_nodes":[],"categories_segments":[],"categories_sizes":[],"default_left":[0,0,0,0,0,0,0,0,0,0,0,0,0,0,0,0,0,0,0,0,0,0,0,0,0,0,0,0,0,0,0,0,0,0,0,0,0,0,0,0,0,0,0,0,0,0,0,0,0,0,0,0,0,0,0,0,0,0,0,0,0,0,0,0,0,0,0,0,0,0,0,0,0,0,0],"id":6,"left_children":[1,3,5,7,9,11,13,-1,15,17,19,21,23,25,27,29,-1,31,33,35,37,-1,-1,39,41,43,45,-1,47,49,51,53,55,-1,57,59,61,-1,63,65,-1,-1,67,69,-1,-1,71,-1,73,-1,-1,-1,-1,-1,-1,-1,-1,-1,-1,-1,-1,-1,-1,-1,-1,-1,-1,-1,-1,-1,-1,-1,-1,-1,-1],"loss_changes":[6.738497E1,1.5666569E1,9.786728E0,3.3802261E0,5.9490013E-1,4.9423942E-1,2.8583794E0,0E0,2.6493073E-1,5.5709934E-1,1.8258761E0,3.9749086E-2,7.900435E-1,2.5770283E-1,3.0918503E-1,5.6764603E-2,0E0,1.2539072E0,1.4543009E-1,2.919247E-1,3.398595E-1,0E0,0E0,1.0748067E0,9.4109404E-1,6.180935E-1,5.9501684E-1,0E0,9.2102814E-1,1.4354038E-1,4.6874464E-2,4.514103E-1,1.0038133E0,0E0,4.171127E-1,1.7490948E0,2.6231408E-3,0E0,1.1450284E0,4.892399E-1,0E0,0E0,7.277568E-1,1.2497149E0,0E0,0E0,1.2581444E-1,0E0,4.474697E-1,0E0,0E0,0E0,0E0,0E0,0E0,0E0,0E0,0E0,0E0,0E0,0E0,0E0,0E0,0E0,0E0,0E0,0E0,0E0,0E0,0E0,0E0,0E0,0E0,0E0,0E0],"parents":[2147483647,0,0,1,1,2,2,3,3,4,4,5,5,6,6,8,8,9,9,10,10,11,11,12,12,13,13,14,14,15,15,17,17,18,18,19,19,20,20,23,23,24,24,25,25,26,26,28,28,29,29,30,30,31,31,32,32,34,34,35,35,36,36,38,38,39,39,42,42,43,43,46,46,48,48],"right_children":[2,4,6,8,10,12,14,-1,16,18,20,22,24,26,28,30,-1,32,34,36,38,-1,-1,40,42,44,46,-1,48,50,52,54,56,-1,58,60,62,-1,64,66,-1,-1,68,70,-1,-1,72,-1,74,-1,-1,-1,-1,-1,-1,-1,-1,-1,-1,-1,-1,-1,-1,-1,-1,-1,-1,-1,-1,-1,-1,-1,-1,-1,-1],"split_conditions":[5.130099E-1,3.651135E-1,6.303941E-1,2.6977324E-1,4.5888826E-1,5.1738644E-1,7.762812E-1,-4.068261E-2,3.529746E-1,4.4364253E-1,4.7656038E-1,5.1561624E-1,5.274928E-1,7.426511E-1,7.868988E-1,3.450005E-1,-3.18412E-2,4.2423114E-1,4.486376E-1,4.706501E-1,4.8647135E-1,7.329428E-3,1.6376143E-2,5.2629536E-1,5.288301E-1,7.2564477E-1,7.46956E-1,3.80343E-2,7.912466E-1,3.0410996E-1,3.4970117E-1,4.0175796E-1,4.3259636E-1,-2.6708072E-2,4.518176E-1,4.6434444E-1,4.7580987E-1,-2.000856E-2,5.031532E-1,5.22256E-1,-3.1469766E-2,2.3974558E-2,5.5477333E-1,7.162418E-1,2.7557403E-2,-8.507287E-3,7.723595E-1,8.186208E-5,8.640128E-1,-1.6531035E-2,-2.513636E-2,-4.6215793E-3,-1.5624805E-2,-8.984244E-3,-1.891772E-2,1.2627891E-2,-9.725585E-3,-4.4133007E-3,-2.2128625E-2,1.1678895E-2,-2.507526E-2,1.2522432E-2,6.6186213E-3,3.517959E-3,-1.748708E-2,-9.85574E-3,8.516229E-3,-5.648555E-3,4.458713E-3,1.681428E-2,6.1955693E-4,1.4198593E-2,1.5791593E-3,2.095992E-2,3.0344898E-2],"split_indices":[0,0,0,0,0,0,0,0,0,0,0,0,0,0,0,0,0,0,0,0,0,0,0,0,0,0,0,0,0,0,0,0,0,0,0,0,0,0,0,0,0,0,0,0,0,0,0,0,0,0,0,0,0,0,0,0,0,0,0,0,0,0,0,0,0,0,0,0,0,0,0,0,0,0,0],"split_type":[0,0,0,0,0,0,0,0,0,0,0,0,0,0,0,0,0,0,0,0,0,0,0,0,0,0,0,0,0,0,0,0,0,0,0,0,0,0,0,0,0,0,0,0,0,0,0,0,0,0,0,0,0,0,0,0,0,0,0,0,0,0,0,0,0,0,0,0,0,0,0,0,0,0,0],"sum_hessian":[6.368351E2,2.79189E2,3.576461E2,1.2309241E2,1.5609659E2,1.2455769E2,2.330884E2,6.097486E1,6.2117542E1,9.716201E1,5.8934574E1,1.0034421E1,1.1452327E2,1.4079599E2,9.229241E1,5.0965714E1,1.1151828E1,7.869962E1,1.846239E1,2.5509035E1,3.342554E1,5.4004993E0,4.633921E0,1.5516805E1,9.900647E1,1.17714905E2,2.3081087E1,8.930481E0,8.336193E1,4.339546E1,7.5702558E0,6.035531E1,1.834431E1,4.856867E0,1.3605523E1,1.3232552E1,1.2276484E1,8.693748E0,2.4731792E1,1.2585338E1,2.9314675E0,4.1642237E0,9.484224E1,1.06453064E2,1.1261838E1,3.1831913E0,1.9897896E1,3.5258348E0,7.983609E1,1.8782E1,2.4613459E1,2.4790678E0,5.091188E0,4.3145874E1,1.7209433E1,1.0180629E1,8.163682E0,7.0468545E0,6.5586686E0,9.565517E0,3.6670337E0,7.6791883E0,4.597295E0,1.1224698E1,1.3507093E1,6.7943892E0,5.790948E0,2.2600748E1,7.224149E1,9.271622E1,1.3736845E1,1.7383743E1,2.514153E0,3.7836124E1,4.199997E1],"tree_param":{"num_deleted":"0","num_feature":"2","num_nodes":"75","size_leaf_vector":"1"}},{"base_weights":[1.4660908E-3,-3.6037183E-1,2.5676757E-1,-3.8289275E-2,-2.8751844E-1,1.0926525E-1,4.775349E-1,-3.7032232E-1,-9.505943E-2,1.18091054E-1,-2.2541246E-1,4.2608953E-1,5.1546943E-1,7.928155E-2,-3.9006722E-1,-3.493934E-2,-2.5155258E-1,8.931933E-2,2.689159E-1,-1.488598E-2,-4.432228E-3,4.6943521E-1,2.2062632E-1,3.9066907E-2,4.855729E-1,-7.699329E-2,1.1080817E-2,-5.471538E-1,-3.4149048E-1,-5.748774E-2,1.1596977E-1,-1.3887087E-2,-7.2186515E-3,1.0960283E-1,-1.5244727E-1,3.2799754E-2,1.5394126E-1,4.362384E-1,3.6432546E-2,-1.305977E-2,3.2707918E-1,-5.663858E-4,2.5350302E-2,7.3640565E-3,-1.6298082E-2,-2.4103748E-2,-3.6461964E-2,-5.900366E-3,-1.8980158E-2,-1.6942163E-3,-1.1905076E-2,9.959042E-3,-3.6495962E-4,-6.0886994E-4,6.9991173E-3,-2.3907788E-2,-2.3410183E-3,2.5830138E-4,1.1057849E-2,2.6952494E-2,1.8371733E-2,2.1722062E-2,1.8260112E-3],"categories":[],"categories_nodes":[],"categories_segments":[],"categories_sizes":[],"default_left":[0,0,0,0,0,0,0,0,0,0,0,0,0,0,0,0,0,0,0,0,0,0,0,0,0,0,0,0,0,0,0,0,0,0,0,0,0,0,0,0,0,0,0,0,0,0,0,0,0,0,0,0,0,0,0,0,0,0,0,0,0,0,0],"id":7,"left_children":[1,3,5,-1,7,9,11,13,15,17,19,21,23,25,27,29,31,33,35,-1,-1,37,39,-1,41,43,-1,45,47,49,51,-1,-1,53,55,-1,57,59,-1,-1,61,-1,-1,-1,-1,-1,-1,-1,-1,-1,-1,-1,-1,-1,-1,-1,-1,-1,-1,-1,-1,-1,-1],"loss_changes":[5.8579853E1,7.528038E0,1.2054955E1,0E0,3.5341244E0,6.8879986E-1,7.040787E-2,1.4180431E0,6.3776064E-1,9.266579E-1,3.3970416E-2,5.095501E-1,2.6264763E-1,1.8176289E-1,9.5661354E-1,1.7955692E-1,1.2986064E-2,9.2626286E-1,1.4388211E0,0E0,0E0,1.637106E-1,7.97366E-1,0E0,8.0718803E-1,2.865199E-1,0E0,4.8187256E-2,9.527397E-1,1.8322831E-1,7.260136E-2,0E0,0E0,6.369376E-1,4.859163E-1,0E0,2.7868015E-1,1.7049503E-1,0E0,0E0,3.5262454E-1,0E0,0E0,0E0,0E0,0E0,0E0,0E0,0E0,0E0,0E0,0E0,0E0,0E0,0E0,0E0,0E0,0E0,0E0,0E0,0E0,0E0,0E0],"parents":[2147483647,0,0,1,1,2,2,4,4,5,5,6,6,7,7,8,8,9,9,10,10,11,11,12,12,13,13,14,14,15,15,16,16,17,17,18,18,21,21,22,22,24,24,25,25,27,27,28,28,29,29,30,30,33,33,34,34,36,36,37,37,40,40],"right_children":[2,4,6,-1,8,10,12,14,16,18,20,22,24,26,28,30,32,34,36,-1,-1,38,40,-1,42,44,-1,46,48,50,52,-1,-1,54,56,-1,58,60,-1,-1,62,-1,-1,-1,-1,-1,-1,-1,-1,-1,-1,-1,-1,-1,-1,-1,-1,-1,-1,-1,-1,-1,-1],"split_conditions":[4.9438888E-1,1.8775588E-1,7.20646E-1,-3.8289275E-2,4.4253364E-1,7.1602017E-1,8.259325E-1,2.0105623E-1,4.7927812E-1,6.8009657E-1,7.170755E-1,7.9530656E-1,8.339635E-1,1.913875E-1,2.9585615E-1,4.7520602E-1,4.92541E-1,6.6071266E-1,6.8830603E-1,-1.488598E-2,-4.432228E-3,7.8984606E-1,7.973717E-1,3.9066907E-2,8.382155E-1,1.897091E-1,1.1080817E-2,2.7455646E-1,3.203491E-1,4.7270444E-1,4.773578E-1,-1.3887087E-2,-7.2186515E-3,5.278718E-1,6.6483396E-1,3.2799754E-2,6.9493145E-1,7.4255234E-1,3.6432546E-2,-1.305977E-2,8.149999E-1,-5.663858E-4,2.5350302E-2,7.3640565E-3,-1.6298082E-2,-2.4103748E-2,-3.6461964E-2,-5.900366E-3,-1.8980158E-2,-1.6942163E-3,-1.1905076E-2,9.959042E-3,-3.6495962E-4,-6.0886994E-4,6.9991173E-3,-2.3907788E-2,-2.3410183E-3,2.5830138E-4,1.1057849E-2,2.6952494E-2,1.8371733E-2,2.1722062E-2,1.8260112E-3],"split_indices":[1,1,1,0,1,1,1,1,1,1,1,1,1,1,1,1,1,1,1,0,0,1,1,0,1,1,0,1,1,1,1,0,0,1,1,0,1,1,0,0,1,0,0,0,0,0,0,0,0,0,0,0,0,0,0,0,0,0,0,0,0,0,0],"split_type":[0,0,0,0,0,0,0,0,0,0,0,0,0,0,0,0,0,0,0,0,0,0,0,0,0,0,0,0,0,0,0,0,0,0,0,0,0,0,0,0,0,0,0,0,0,0,0,0,0,0,0,0,0,0,0,0,0,0,0,0,0,0,0],"sum_hessian":[6.321321E2,2.6133347E2,3.7079858E2,3.835953E1,2.2297394E2,2.2317952E2,1.4761906E2,1.5525333E2,6.772062E1,2.1807579E2,5.103734E0,6.7843895E1,7.977516E1,6.404457E0,1.4884888E2,4.98088E1,1.791182E1,1.8447676E2,3.3599033E1,2.5688157E0,2.5349183E0,5.496368E1,1.2880217E1,5.523153E0,7.4252014E1,3.2715576E0,3.1328998E0,3.2733177E1,1.1611569E2,4.3872547E1,5.9362507E0,1.311566E1,4.7961593E0,1.7070203E2,1.3774733E1,6.6168537E0,2.6982182E1,5.1102135E1,3.8615458E0,2.0677307E0,1.0812486E1,3.0898244E0,7.1162186E1,1.9360074E0,1.3355501E0,2.6801592E1,5.931587E0,1.7514032E1,9.860166E1,3.9852104E1,4.0204444E0,3.176305E0,2.7599456E0,3.42012E1,1.3650082E2,2.50954E0,1.1265193E1,8.731886E0,1.8250296E1,1.7747688E1,3.3354446E1,7.5336127E0,3.2788732E0],"tree_param":{"num_deleted":"0","num_feature":"2","num_nodes":"63","size_leaf_vector":"1"}},{"base_weights":[1.3497857E-2,-5.5757886E-1,1.8481062E-1,-3.9516103E-2,-4.229674E-1,2.3106735E-2,4.084929E-1,6.762886E-3,-4.3775544E-1,-9.040747E-2,1.2014339E-1,3.9265987E-1,4.051922E-2,-4.8041868E-1,-2.5593033E-1,2.894744E-1,-1.13637686E-1,2.1667635E-2,1.0115209E-1,4.0731618E-1,-5.9122752E-2,-3.737255E-2,-4.5033726E-1,-2.619053E-3,-3.3856955E-1,9.071029E-3,1.8646428E-2,-7.2859846E-2,-2.4553172E-1,1.0762987E-1,-1.2223705E-2,3.7010452E-1,2.8847842E-2,-8.772002E-3,4.757887E-3,-1.627822E-3,-2.3909038E-2,-2.6674746E-2,-1.2671294E-2,-5.994346E-3,8.289003E-3,-2.251782E-2,-6.3447924E-3,4.442535E-3,1.0386511E-2,1.926634E-2,-1.538141E-2],"categories":[],"categories_nodes":[],"categories_segments":[],"categories_sizes":[],"default_left":[0,0,0,0,0,0,0,0,0,0,0,0,0,0,0,0,0,0,0,0,0,0,0,0,0,0,0,0,0,0,0,0,0,0,0,0,0,0,0,0,0,0,0,0,0,0,0],"id":8,"left_children":[1,3,5,-1,7,9,11,-1,13,15,17,19,-1,21,23,25,27,-1,29,31,33,-1,35,-1,37,-1,-1,39,41,43,-1,45,-1,-1,-1,-1,-1,-1,-1,-1,-1,-1,-1,-1,-1,-1,-1],"loss_changes":[6.0687336E1,4.1505775E0,1.7247936E1,0E0,8.25655E-1,3.0728486E0,9.5526886E-1,0E0,5.8052063E-1,1.1685022E0,8.501754E-1,1.3118687E0,0E0,2.4425125E-1,3.0816853E-1,1.7567873E-3,6.38199E-1,0E0,3.464967E-1,9.764042E-1,1.42032E-1,0E0,7.696905E-1,0E0,9.046328E-2,0E0,0E0,1.0815339E0,6.3262403E-1,2.4673307E-1,0E0,1.7421799E0,0E0,0E0,0E0,0E0,0E0,0E0,0E0,0E0,0E0,0E0,0E0,0E0,0E0,0E0,0E0],"parents":[2147483647,0,0,1,1,2,2,4,4,5,5,6,6,8,8,9,9,10,10,11,11,13,13,14,14,15,15,16,16,18,18,19,19,20,20,22,22,24,24,27,27,28,28,29,29,31,31],"right_children":[2,4,6,-1,8,10,12,-1,14,16,18,20,-1,22,24,26,28,-1,30,32,34,-1,36,-1,38,-1,-1,40,42,44,-1,46,-1,-1,-1,-1,-1,-1,-1,-1,-1,-1,-1,-1,-1,-1,-1],"split_conditions":[3.810115E-1,2.554886E-1,6.5635365E-1,-3.9516103E-2,2.6263186E-1,5.0970805E-1,9.717581E-1,6.762886E-3,3.679702E-1,3.8650107E-1,5.130099E-1,9.4277036E-1,4.051922E-2,2.6977324E-1,3.6961952E-1,3.831812E-1,4.7656038E-1,2.1667635E-2,6.538939E-1,8.640128E-1,9.619621E-1,-3.737255E-2,2.7534562E-1,-2.619053E-3,3.712873E-1,9.071029E-3,1.8646428E-2,4.685754E-1,4.8647135E-1,6.303941E-1,-1.2223705E-2,8.529533E-1,2.8847842E-2,-8.772002E-3,4.757887E-3,-1.627822E-3,-2.3909038E-2,-2.6674746E-2,-1.2671294E-2,-5.994346E-3,8.289003E-3,-2.251782E-2,-6.3447924E-3,4.442535E-3,1.0386511E-2,1.926634E-2,-1.538141E-2],"split_indices":[0,0,0,0,0,0,0,0,0,0,0,0,0,0,0,0,0,0,0,0,0,0,0,0,0,0,0,0,0,0,0,0,0,0,0,0,0,0,0,0,0,0,0,0,0,0,0],"split_type":[0,0,0,0,0,0,0,0,0,0,0,0,0,0,0,0,0,0,0,0,0,0,0,0,0,0,0,0,0,0,0,0,0,0,0,0,0,0,0,0,0,0,0,0,0,0,0],"sum_hessian":[6.18264E2,1.4214943E2,4.7611456E2,5.0303513E1,9.1845924E1,2.769824E2,1.9913217E2,2.1600738E0,8.968585E1,1.2768446E2,1.4929793E2,1.9348656E2,5.645619E0,7.131125E1,1.83746E1,6.697627E0,1.2098683E2,7.2877636E0,1.4201016E2,1.8750221E2,5.9843473E0,4.805482E0,6.650577E1,5.777601E0,1.2596998E1,4.30175E0,2.3958766E0,9.3600624E1,2.7386211E1,1.4007347E2,1.9366837E0,1.5638084E2,3.1121365E1,3.3337617E0,2.6505857E0,4.2909546E0,6.2214817E1,2.2287498E0,1.0368249E1,7.8607605E1,1.4993021E1,9.018925E0,1.8367285E1,1.1953576E2,2.0537718E1,1.5336755E2,3.0132818E0],"tree_param":{"num_deleted":"0","num_feature":"2","num_nodes":"47","size_leaf_vector":"1"}},{"base_weights":[-1.1873668E-3,-3.0549544E-1,2.4790864E-1,-5.298444E-1,-1.4349322E-1,1.2279659E-1,4.7064042E-1,-3.788957E-2,-4.0744886E-1,-2.677077E-1,-9.8446056E-2,7.5308033E-3,1.4188373E-1,3.5753566E-1,2.611613E-2,8.708187E-3,-4.2975518E-1,-1.7535688E-1,-2.8666312E-2,1.3125839E-2,-1.14560425E-1,2.0578177E-1,-9.667138E-2,3.493485E-1,1.0721338E-1,3.9900324E-1,-1.3806482E-2,-4.0246904E-1,-3.6102317E-2,-2.5912723E-1,3.3520484E-1,-2.86855E-2,-1.0202196E-1,3.095948E-2,2.959993E-1,-1.4716521E-2,-6.554057E-2,2.6248357E-1,2.7435113E-2,-2.5113618E-1,1.3077654E-1,4.6940163E-1,2.7132758E-1,-2.3062553E-2,-1.6422158E-2,-8.858128E-3,-2.7882386E-2,1.9923342E-2,2.9622733E-3,-3.965312E-3,-1.4633395E-2,1.4806394E-2,-1.5555041E-2,8.865888E-3,2.1209037E-2,6.269815E-3,-6.3996664E-3,1.8382542E-2,-5.386014E-4,1.8798293E-3,-1.9660158E-2,3.1168697E-2,5.784623E-3,2.0212054E-2,3.2716446E-2,9.613699E-3,2.3083657E-2],"categories":[],"categories_nodes":[],"categories_segments":[],"categories_sizes":[],"default_left":[0,0,0,0,0,0,0,0,0,0,0,0,0,0,0,0,0,0,0,0,0,0,0,0,0,0,0,0,0,0,0,0,0,0,0,0,0,0,0,0,0,0,0,0,0,0,0,0,0,0,0,0,0,0,0,0,0,0,0,0,0,0,0,0,0,0,0],"id":9,"left_children":[1,3,5,7,9,11,13,-1,15,17,19,21,23,25,-1,-1,27,29,-1,-1,31,33,35,37,39,41,-1,43,-1,45,47,-1,49,51,53,-1,55,57,-1,59,61,63,65,-1,-1,-1,-1,-1,-1,-1,-1,-1,-1,-1,-1,-1,-1,-1,-1,-1,-1,-1,-1,-1,-1,-1,-1],"loss_changes":[4.6404705E1,9.93891E0,9.322958E0,2.90448E0,8.766527E-1,4.761455E-1,5.1895905E-1,0E0,1.0750923E0,1.0952661E0,7.281498E-1,6.782964E-1,1.3006706E0,1.1883888E0,0E0,0E0,3.038807E-1,1.540055E0,0E0,0E0,6.068666E-1,1.690605E-1,1.1344363E-1,3.095858E-1,1.3909514E0,2.2247553E-1,0E0,1.5499115E-1,0E0,6.2918127E-1,6.760955E-2,0E0,4.6928942E-1,5.4231066E-1,3.6397874E-2,0E0,2.5361753E-1,5.833657E-1,0E0,4.3588382E-1,1.0541337E0,2.1302223E-2,1.550504E-1,0E0,0E0,0E0,0E0,0E0,0E0,0E0,0E0,0E0,0E0,0E0,0E0,0E0,0E0,0E0,0E0,0E0,0E0,0E0,0E0,0E0,0E0,0E0,0E0],"parents":[2147483647,0,0,1,1,2,2,3,3,4,4,5,5,6,6,8,8,9,9,10,10,11,11,12,12,13,13,16,16,17,17,20,20,21,21,22,22,23,23,24,24,25,25,27,27,29,29,30,30,32,32,33,33,34,34,36,36,37,37,39,39,40,40,41,41,42,42],"right_children":[2,4,6,8,10,12,14,-1,16,18,20,22,24,26,-1,-1,28,30,-1,-1,32,34,36,38,40,42,-1,44,-1,46,48,-1,50,52,54,-1,56,58,-1,60,62,64,66,-1,-1,-1,-1,-1,-1,-1,-1,-1,-1,-1,-1,-1,-1,-1,-1,-1,-1,-1,-1,-1,-1,-1,-1],"split_conditions":[5.0965834E-1,3.656874E-1,7.383859E-1,1.913875E-1,4.1263837E-1,5.4509985E-1,7.973717E-1,-3.788957E-2,2.0105623E-1,4.040974E-1,4.1648456E-1,5.2428687E-1,5.775843E-1,7.9530656E-1,2.611613E-2,8.708187E-3,3.5896248E-1,4.0012413E-1,-2.8666312E-2,1.3125839E-2,4.1816515E-1,5.1376146E-1,5.253481E-1,5.7147425E-1,5.8750486E-1,7.7451116E-1,-1.3806482E-2,3.012854E-1,-3.6102317E-2,3.928266E-1,4.012584E-1,-2.86855E-2,5.066705E-1,5.115829E-1,5.2184147E-1,-1.4716521E-2,5.301238E-1,5.6425256E-1,2.7435113E-2,5.7871604E-1,5.895689E-1,7.656243E-1,7.8984606E-1,-2.3062553E-2,-1.6422158E-2,-8.858128E-3,-2.7882386E-2,1.9923342E-2,2.9622733E-3,-3.965312E-3,-1.4633395E-2,1.4806394E-2,-1.5555041E-2,8.865888E-3,2.1209037E-2,6.269815E-3,-6.3996664E-3,1.8382542E-2,-5.386014E-4,1.8798293E-3,-1.9660158E-2,3.1168697E-2,5.784623E-3,2.0212054E-2,3.2716446E-2,9.613699E-3,2.3083657E-2],"split_indices":[1,1,1,1,1,1,1,0,1,1,1,1,1,1,0,0,1,1,0,0,1,1,1,1,1,1,0,1,0,1,1,0,1,1,1,0,1,1,0,1,1,1,1,0,0,0,0,0,0,0,0,0,0,0,0,0,0,0,0,0,0,0,0,0,0,0,0],"split_type":[0,0,0,0,0,0,0,0,0,0,0,0,0,0,0,0,0,0,0,0,0,0,0,0,0,0,0,0,0,0,0,0,0,0,0,0,0,0,0,0,0,0,0,0,0,0,0,0,0,0,0,0,0,0,0,0,0,0,0,0,0,0,0,0,0,0,0],"sum_hessian":[6.1018463E2,2.745519E2,3.3563272E2,1.14171196E2,1.6038072E2,2.1590608E2,1.1972662E2,3.807317E1,7.609803E1,4.136812E1,1.19012596E2,3.0871302E1,1.8503479E2,4.003321E1,7.969341E1,2.5593014E0,7.353873E1,3.2977005E1,8.391111E0,4.4325414E0,1.14580055E2,1.0300034E1,2.0571268E1,2.519479E1,1.5984E2,3.7921894E1,2.111316E0,6.9433846E1,4.1048875E0,2.8751993E1,4.2250133E0,1.8560698E0,1.1272398E2,3.963255E0,6.336778E0,1.6486778E0,1.892259E1,1.9161968E1,6.032821E0,9.265894E0,1.505741E2,2.2718658E1,1.5203235E1,3.57861E1,3.3647743E1,2.38084E1,4.943595E0,3.0759401E0,1.1490731E0,1.0198797E2,1.073602E1,2.308199E0,1.6550561E0,4.5278425E0,1.8089355E0,4.4154315E0,1.4507159E1,1.3587235E1,5.574734E0,3.2981627E0,5.967731E0,3.2756438E0,1.4729846E2,1.9155144E1,3.5635152E0,1.2162204E1,3.041031E0],"tree_param":{"num_deleted":"0","num_feature":"2","num_nodes":"67","size_leaf_vector":"1"}},{"base_weights":[-2.526256E-3,-3.140659E-1,2.7925643E-1,-3.7655525E-2,-2.115636E-1,8.860119E-2,3.7463558E-1,-2.840559E-1,-6.719939E-2,2.7216345E-1,5.2487712E-2,2.9723316E-1,4.815207E-1,-3.3843362E-1,-2.1214288E-1,3.0612117E-1,-1.1128576E-1,1.274527E-1,2.689125E-2,-4.7628513E-1,1.0172389E-1,3.4437466E-1,1.1123969E-1,3.9578922E-2,4.0602452E-1,-1.8254668E-1,-3.9201128E-1,-8.096762E-2,-3.98996E-1,1.10619694E-1,2.5932623E-2,-8.249744E-2,-3.0865306E-2,2.0452065E-2,-5.5453416E-2,-6.262667E-3,-3.206949E-2,3.5088027E-1,7.945742E-2,2.6871833E-1,3.8401306E-1,-7.3494758E-3,1.6805813E-1,2.1163198E-1,2.785914E-2,-2.0679584E-2,6.9126845E-3,-2.1210693E-2,-1.5411724E-2,-7.319119E-3,9.48327E-3,-2.3009287E-2,-1.1990628E-2,1.3893764E-2,-6.408557E-3,-2.7169658E-2,-2.5544963E-3,1.8793301E-3,-1.5764227E-2,2.1752095E-2,8.728955E-3,-1.9077979E-3,5.643557E-3,1.5804471E-2,-9.247236E-3,2.501893E-2,1.5129352E-2,1.0917924E-2,-6.918013E-3,-4.795832E-3,1.4106243E-2],"categories":[],"categories_nodes":[],"categories_segments":[],"categories_sizes":[],"default_left":[0,0,0,0,0,0,0,0,0,0,0,0,0,0,0,0,0,0,0,0,0,0,0,0,0,0,0,0,0,0,0,0,0,0,0,0,0,0,0,0,0,0,0,0,0,0,0,0,0,0,0,0,0,0,0,0,0,0,0,0,0,0,0,0,0,0,0,0,0,0,0],"id":10,"left_children":[1,3,5,-1,7,9,11,13,15,17,19,21,23,25,27,29,31,33,-1,35,37,39,41,-1,43,45,47,49,51,53,-1,55,-1,-1,57,-1,-1,59,61,63,65,-1,67,69,-1,-1,-1,-1,-1,-1,-1,-1,-1,-1,-1,-1,-1,-1,-1,-1,-1,-1,-1,-1,-1,-1,-1,-1,-1,-1,-1],"loss_changes":[5.428565E1,1.3057201E1,5.8713818E0,0E0,2.4871855E0,7.121489E-1,1.6448708E0,5.5042934E-1,1.3732231E0,6.148317E-1,2.4646616E0,1.0836506E0,1.7656574E0,6.71154E-1,1.7126503E0,3.1078213E-1,1.0198691E0,6.82871E-1,0E0,3.8804436E-1,4.4771177E-1,2.0152378E-1,4.2601112E-1,0E0,2.0492735E0,1.8817976E0,4.5433998E-2,7.9047114E-1,1.7318058E-1,2.707074E-1,0E0,9.9571073E-1,0E0,0E0,2.209928E-1,0E0,0E0,2.4055362E-2,3.1864285E-1,8.807697E-1,4.5827198E-1,0E0,3.829432E-1,7.614809E-1,0E0,0E0,0E0,0E0,0E0,0E0,0E0,0E0,0E0,0E0,0E0,0E0,0E0,0E0,0E0,0E0,0E0,0E0,0E0,0E0,0E0,0E0,0E0,0E0,0E0,0E0,0E0],"parents":[2147483647,0,0,1,1,2,2,4,4,5,5,6,6,7,7,8,8,9,9,10,10,11,11,12,12,13,13,14,14,15,15,16,16,17,17,19,19,20,20,21,21,22,22,24,24,25,25,26,26,27,27,28,28,29,29,31,31,34,34,37,37,38,38,39,39,40,40,42,42,43,43],"right_children":[2,4,6,-1,8,10,12,14,16,18,20,22,24,26,28,30,32,34,-1,36,38,40,42,-1,44,46,48,50,52,54,-1,56,-1,-1,58,-1,-1,60,62,64,66,-1,68,70,-1,-1,-1,-1,-1,-1,-1,-1,-1,-1,-1,-1,-1,-1,-1,-1,-1,-1,-1,-1,-1,-1,-1,-1,-1,-1,-1],"split_conditions":[5.274928E-1,2.6977324E-1,6.4442104E-1,-3.7655525E-2,4.5888826E-1,5.4525715E-1,7.762812E-1,3.810115E-1,4.6318406E-1,5.404498E-1,5.5477333E-1,7.426511E-1,8.0250764E-1,3.0410996E-1,4.3259636E-1,4.6221602E-1,5.2629536E-1,5.288301E-1,2.689125E-2,5.482124E-1,5.5990493E-1,6.829984E-1,7.46956E-1,3.9578922E-2,8.640128E-1,2.9250047E-1,3.679702E-1,4.2423114E-1,4.508517E-1,4.6075258E-1,2.5932623E-2,4.685754E-1,-3.0865306E-2,2.0452065E-2,5.359106E-1,-6.262667E-3,-3.206949E-2,5.571347E-1,5.781144E-1,6.814358E-1,7.058315E-1,-7.3494758E-3,7.723595E-1,8.073981E-1,2.785914E-2,-2.0679584E-2,6.9126845E-3,-2.1210693E-2,-1.5411724E-2,-7.319119E-3,9.48327E-3,-2.3009287E-2,-1.1990628E-2,1.3893764E-2,-6.408557E-3,-2.7169658E-2,-2.5544963E-3,1.8793301E-3,-1.5764227E-2,2.1752095E-2,8.728955E-3,-1.9077979E-3,5.643557E-3,1.5804471E-2,-9.247236E-3,2.501893E-2,1.5129352E-2,1.0917924E-2,-6.918013E-3,-4.795832E-3,1.4106243E-2],"split_indices":[0,0,0,0,0,0,0,0,0,0,0,0,0,0,0,0,0,0,0,0,0,0,0,0,0,0,0,0,0,0,0,0,0,0,0,0,0,0,0,0,0,0,0,0,0,0,0,0,0,0,0,0,0,0,0,0,0,0,0,0,0,0,0,0,0,0,0,0,0,0,0],"split_type":[0,0,0,0,0,0,0,0,0,0,0,0,0,0,0,0,0,0,0,0,0,0,0,0,0,0,0,0,0,0,0,0,0,0,0,0,0,0,0,0,0,0,0,0,0,0,0,0,0,0,0,0,0,0,0,0,0,0,0,0,0,0,0,0,0,0,0,0,0,0,0],"sum_hessian":[6.163837E2,2.9268066E2,3.2370306E2,5.4196293E1,2.3848438E2,1.085831E2,2.1511995E2,1.5811801E2,8.036636E1,1.6775923E1,9.1807175E1,1.2696053E2,8.8159424E1,8.792585E1,7.019217E1,7.860499E0,7.250587E1,1.1818127E1,4.9577956E0,7.081525E0,8.4725655E1,1.0060889E2,2.6351645E1,1.5405418E1,7.2754005E1,2.3617292E1,6.4308556E1,4.208255E1,2.8109617E1,4.8862567E0,2.9742422E0,6.9703354E1,2.8025062E0,4.1668344E0,7.6512923E0,2.8278387E0,4.2536864E0,5.7398543E0,7.8985794E1,3.7263912E1,6.334497E1,4.4662714E0,2.1885372E1,3.287552E1,3.987849E1,1.3561127E1,1.0056167E1,4.3517467E1,2.0791086E1,3.426054E1,7.8220105E0,1.8938707E1,9.170909E0,2.7772903E0,2.1089664E0,3.4068913E0,6.629646E1,6.2637267E0,1.3875655E0,2.8917844E0,2.84807E0,1.744367E1,6.1542126E1,3.4015316E1,3.2485964E0,2.3959442E1,3.938553E1,1.9046211E1,2.8391614E0,6.063E0,2.6812517E1],"tree_param":{"num_deleted":"0","num_feature":"2","num_nodes":"71","size_leaf_vector":"1"}},{"base_weights":[1.1603136E-2,-2.7573332E-1,3.1151423E-1,-4.6190643E-1,-1.095288E-1,2.4237812E-1,2.4011286E-2,-3.8782027E-2,-3.993529E-1,2.0159173E-1,-1.2180683E-1,1.8284452E-1,3.180398E-1,6.140881E-3,-4.109377E-1,-6.6778795E-3,2.1105986E-2,-2.0356452E-2,-9.736111E-2,2.5125512E-1,-2.0350659E-1,3.4715307E-1,3.0542865E-2,-5.003075E-1,-3.2558602E-1,1.1286703E-2,-1.0752197E-1,2.1404075E-2,2.2639227E-1,-2.324256E-1,-3.0979156E-3,3.0738938E-1,4.6020627E-1,-6.563774E-3,1.0601827E-1,-1.8888434E-2,-3.1052146E-2,-1.4493324E-2,-3.468119E-2,-2.5828034E-2,-4.8598913E-3,5.7059033E-3,1.4730562E-2,-5.272211E-3,-1.4419414E-2,1.784214E-2,-1.1130774E-2,2.701356E-2,1.4893672E-2,9.223365E-3,9.1813796E-4],"categories":[],"categories_nodes":[],"categories_segments":[],"categories_sizes":[],"default_left":[0,0,0,0,0,0,0,0,0,0,0,0,0,0,0,0,0,0,0,0,0,0,0,0,0,0,0,0,0,0,0,0,0,0,0,0,0,0,0,0,0,0,0,0,0,0,0,0,0,0,0],"id":11,"left_children":[1,3,5,7,9,11,-1,-1,13,15,17,19,21,-1,23,-1,-1,-1,25,27,29,31,33,35,37,-1,39,-1,41,43,-1,45,47,-1,49,-1,-1,-1,-1,-1,-1,-1,-1,-1,-1,-1,-1,-1,-1,-1,-1],"loss_changes":[5.1699272E1,9.430588E0,3.3072872E0,2.520443E0,6.479616E-1,8.8878155E-1,0E0,0E0,7.9029083E-1,5.421528E-1,1.0597816E0,3.2228832E0,7.529049E-1,0E0,7.515011E-1,0E0,0E0,0E0,5.0522065E-1,3.5327148E-1,6.175691E-2,2.3046684E-1,1.2975356E-1,6.041937E-1,6.426568E-1,0E0,5.524558E-1,0E0,6.7024755E-1,7.678932E-2,0E0,1.76265E0,9.2728615E-2,0E0,4.489214E-2,0E0,0E0,0E0,0E0,0E0,0E0,0E0,0E0,0E0,0E0,0E0,0E0,0E0,0E0,0E0,0E0],"parents":[2147483647,0,0,1,1,2,2,3,3,4,4,5,5,8,8,9,9,10,10,11,11,12,12,14,14,18,18,19,19,20,20,21,21,22,22,23,23,24,24,26,26,28,28,29,29,31,31,32,32,34,34],"right_children":[2,4,6,8,10,12,-1,-1,14,16,18,20,22,-1,24,-1,-1,-1,26,28,30,32,34,36,38,-1,40,-1,42,44,-1,46,48,-1,50,-1,-1,-1,-1,-1,-1,-1,-1,-1,-1,-1,-1,-1,-1,-1,-1],"split_conditions":[5.545275E-1,3.960218E-1,7.8984606E-1,1.4438193E-1,4.012584E-1,6.764517E-1,2.4011286E-2,-3.8782027E-2,1.4979956E-1,4.0012413E-1,4.1263837E-1,6.5577286E-1,7.77826E-1,6.140881E-3,3.012854E-1,-6.6778795E-3,2.1105986E-2,-2.0356452E-2,4.1648456E-1,5.6425256E-1,6.709878E-1,7.5121516E-1,7.817639E-1,2.3309945E-1,3.928266E-1,1.1286703E-2,4.1816515E-1,2.1404075E-2,6.006294E-1,6.6071266E-1,-3.0979156E-3,7.4255234E-1,7.631717E-1,-6.563774E-3,7.8816795E-1,-1.8888434E-2,-3.1052146E-2,-1.4493324E-2,-3.468119E-2,-2.5828034E-2,-4.8598913E-3,5.7059033E-3,1.4730562E-2,-5.272211E-3,-1.4419414E-2,1.784214E-2,-1.1130774E-2,2.701356E-2,1.4893672E-2,9.223365E-3,9.1813796E-4],"split_indices":[1,1,1,1,1,1,0,0,1,1,1,1,1,0,1,0,0,0,1,1,1,1,1,1,1,0,1,0,1,1,0,1,1,0,1,0,0,0,0,0,0,0,0,0,0,0,0,0,0,0,0],"split_type":[0,0,0,0,0,0,0,0,0,0,0,0,0,0,0,0,0,0,0,0,0,0,0,0,0,0,0,0,0,0,0,0,0,0,0,0,0,0,0,0,0,0,0,0,0,0,0,0,0,0,0],"sum_hessian":[5.97934E2,3.054099E2,2.925241E2,1.432123E2,1.6219763E2,2.0922333E2,8.330079E1,2.1912361E1,1.2129993E2,5.572546E0,1.5662509E2,1.19003395E2,9.021993E1,2.4243362E0,1.18875595E2,2.3680518E0,3.2044942E0,1.1124877E1,1.4550021E2,1.01398575E2,1.760482E1,8.173552E1,8.484408E0,5.5695927E1,6.317967E1,3.7893815E0,1.4171083E2,1.05005045E1,9.089807E1,1.4085135E1,3.5196857E0,6.3218838E1,1.8516682E1,2.4634619E0,6.0209465E0,2.9690664E1,2.600526E1,5.9219753E1,3.9599137E0,2.2815728E0,1.3942926E2,3.536593E1,5.5532143E1,5.190925E0,8.89421E0,5.812231E1,5.0965276E0,1.0841381E1,7.6753016E0,2.5944946E0,3.4264522E0],"tree_param":{"num_deleted":"0","num_feature":"2","num_nodes":"51","size_leaf_vector":"1"}},{"base_weights":[5.6015835E-3,-3.1105778E-1,2.6195964E-1,-3.6812957E-2,-2.4193107E-1,1.335531E-1,3.8596666E-1,-3.204454E-1,-1.0387347E-1,-5.340263E-3,1.5812096E-1,3.3820164E-1,4.9400553E-1,6.694215E-2,-3.404328E-1,1.9478265E-2,-1.4663427E-1,1.03633314E-1,-1.07910626E-1,1.9476552E-1,4.575234E-2,3.4648994E-1,2.4239623E-3,3.8699932E-2,4.0622246E-1,-1.3001835E-1,1.2070997E-2,-4.6447378E-1,-2.9561248E-1,-1.20023996E-1,-1.6562978E-2,-6.852246E-4,1.7152067E-1,-6.9097154E-2,-1.306315E-2,1.6909496E-1,2.4495248E-2,-2.0099783E-2,1.1243808E-1,3.1650227E-1,4.1881925E-1,1.1368119E-1,2.3203725E-2,3.1009072E-3,-1.6096601E-2,-1.8807983E-2,-3.69617E-2,-4.656237E-3,-1.6545286E-2,-8.359697E-3,4.752365E-3,8.255783E-3,-1.3693728E-2,1.5512089E-2,1.470528E-3,-8.3332425E-3,-1.3206998E-3,9.148363E-3,-1.5980909E-2,2.895857E-3,8.130126E-3,1.6658949E-2,-1.3539091E-2,2.709247E-2,1.451272E-2,1.8024644E-2,-6.695181E-3],"categories":[],"categories_nodes":[],"categories_segments":[],"categories_sizes":[],"default_left":[0,0,0,0,0,0,0,0,0,0,0,0,0,0,0,0,0,0,0,0,0,0,0,0,0,0,0,0,0,0,0,0,0,0,0,0,0,0,0,0,0,0,0,0,0,0,0,0,0,0,0,0,0,0,0,0,0,0,0,0,0,0,0,0,0,0,0],"id":12,"left_children":[1,3,5,-1,7,9,11,13,15,17,19,21,23,25,27,-1,29,31,33,35,37,39,-1,-1,41,43,-1,45,47,49,-1,51,53,55,-1,57,-1,-1,59,61,63,65,-1,-1,-1,-1,-1,-1,-1,-1,-1,-1,-1,-1,-1,-1,-1,-1,-1,-1,-1,-1,-1,-1,-1,-1,-1],"loss_changes":[4.8203106E1,7.630394E0,5.173353E0,0E0,2.4598045E0,5.561435E-1,6.916046E-1,1.1543207E0,1.8477039E0,2.9537982E-1,5.6060004E-1,2.6788712E-1,8.8603497E-1,3.0650988E-1,6.362095E-1,0E0,3.4748387E-1,9.103678E-2,6.282297E-2,7.0502114E-1,1.0997705E0,1.1707878E-1,0E0,0E0,6.121588E-1,1.8251444E-1,0E0,5.755539E-1,7.1923065E-1,7.307006E-1,0E0,3.195792E-1,1.4426973E-1,4.6416204E-2,0E0,7.174213E-1,0E0,0E0,7.6795876E-2,9.271593E-1,3.2735443E-1,5.2558476E-1,0E0,0E0,0E0,0E0,0E0,0E0,0E0,0E0,0E0,0E0,0E0,0E0,0E0,0E0,0E0,0E0,0E0,0E0,0E0,0E0,0E0,0E0,0E0,0E0,0E0],"parents":[2147483647,0,0,1,1,2,2,4,4,5,5,6,6,7,7,8,8,9,9,10,10,11,11,12,12,13,13,14,14,16,16,17,17,18,18,19,19,20,20,21,21,24,24,25,25,27,27,28,28,29,29,31,31,32,32,33,33,35,35,38,38,39,39,40,40,41,41],"right_children":[2,4,6,-1,8,10,12,14,16,18,20,22,24,26,28,-1,30,32,34,36,38,40,-1,-1,42,44,-1,46,48,50,-1,52,54,56,-1,58,-1,-1,60,62,64,66,-1,-1,-1,-1,-1,-1,-1,-1,-1,-1,-1,-1,-1,-1,-1,-1,-1,-1,-1,-1,-1,-1,-1,-1,-1],"split_conditions":[5.0965834E-1,1.8775588E-1,6.8324125E-1,-3.6812957E-2,4.4253364E-1,5.357056E-1,8.735446E-1,2.0105623E-1,4.452763E-1,5.2428687E-1,6.4187574E-1,8.6608887E-1,8.954498E-1,1.913875E-1,2.9585615E-1,1.9478265E-2,5.066705E-1,5.1376146E-1,5.335E-1,6.3448894E-1,6.4636075E-1,7.973717E-1,2.4239623E-3,3.8699932E-2,9.0593636E-1,1.897091E-1,1.2070997E-2,2.7455646E-1,3.203491E-1,4.9438888E-1,-1.6562978E-2,5.115829E-1,5.1919705E-1,5.253481E-1,-1.306315E-2,6.323692E-1,2.4495248E-2,-2.0099783E-2,6.6483396E-1,7.9530656E-1,8.339635E-1,9.049373E-1,2.3203725E-2,3.1009072E-3,-1.6096601E-2,-1.8807983E-2,-3.69617E-2,-4.656237E-3,-1.6545286E-2,-8.359697E-3,4.752365E-3,8.255783E-3,-1.3693728E-2,1.5512089E-2,1.470528E-3,-8.3332425E-3,-1.3206998E-3,9.148363E-3,-1.5980909E-2,2.895857E-3,8.130126E-3,1.6658949E-2,-1.3539091E-2,2.709247E-2,1.451272E-2,1.8024644E-2,-6.695181E-3],"split_indices":[1,1,1,0,1,1,1,1,1,1,1,1,1,1,1,0,1,1,1,1,1,1,0,0,1,1,0,1,1,1,0,1,1,1,0,1,0,0,1,1,1,1,0,0,0,0,0,0,0,0,0,0,0,0,0,0,0,0,0,0,0,0,0,0,0,0,0],"split_type":[0,0,0,0,0,0,0,0,0,0,0,0,0,0,0,0,0,0,0,0,0,0,0,0,0,0,0,0,0,0,0,0,0,0,0,0,0,0,0,0,0,0,0,0,0,0,0,0,0,0,0,0,0,0,0,0,0,0,0,0,0,0,0,0,0,0,0],"sum_hessian":[5.9179016E2,2.646612E2,3.2712897E2,3.566058E1,2.2900061E2,1.6173398E2,1.6539497E2,1.4513834E2,8.386228E1,2.4425877E1,1.373081E2,1.1755373E2,4.784125E1,7.0057898E0,1.3813254E2,6.0410604E0,7.782122E1,1.1838241E1,1.2587636E1,1.0298904E2,3.431906E1,1.1409382E2,3.459907E0,9.553191E0,3.8288063E1,3.4105642E0,3.5952253E0,3.4178867E1,1.03953674E2,6.945996E1,8.3612585E0,5.0571375E0,6.781103E0,1.1202789E1,1.3848468E0,9.619514E1,6.793901E0,3.7969558E0,3.0522104E1,8.445478E1,2.9639042E1,6.8111324E0,3.147693E1,2.04305E0,1.3675141E0,2.7658005E1,6.5208616E0,1.5969656E1,8.798402E1,5.714861E1,1.2311357E1,3.3933096E0,1.6638281E0,2.8327744E0,3.9483287E0,2.5253944E0,8.677394E0,9.4148315E1,2.0468192E0,1.56584015E1,1.4863703E1,8.2543526E1,1.9112507E0,1.35028715E1,1.613617E1,3.182516E0,3.6286163E0],"tree_param":{"num_deleted":"0","num_feature":"2","num_nodes":"67","size_leaf_vector":"1"}},{"base_weights":[1.2985746E-2,-3.2387063E-1,2.6620764E-1,-3.731964E-2,-2.3254234E-1,1.0040447E-1,3.942954E-1,-3.2862484E-1,-1.6370377E-1,2.3316308E-3,1.5001954E-1,3.2290924E-1,4.6862268E-1,-1.811077E-1,-3.4518486E-1,-1.19899474E-1,-2.7681036E-2,6.5338954E-2,-2.9874492E-2,2.71438E-2,1.2953907E-1,3.4894012E-2,2.9610604E-1,3.254276E-2,4.1801265E-1,-3.9548314E-1,2.1972327E-2,-4.249119E-1,-2.7633053E-1,1.7607296E-2,-1.4524792E-1,2.7986826E-2,2.5197586E-1,8.079756E-2,2.219765E-1,3.5357097E-1,2.2872193E-1,-1.1988411E-2,4.575598E-1,-3.54356E-3,-2.6869783E-2,-1.0760981E-2,-2.2149613E-2,1.0524269E-2,-1.6645856E-2,-1.1967548E-2,1.0170162E-3,5.2875206E-3,-1.3172063E-2,2.2169089E-2,-4.581785E-3,6.646927E-3,-9.1362E-3,1.9411843E-2,4.3518376E-3,6.714304E-3,2.0320235E-2,-6.521909E-3,1.5951907E-2,1.8318431E-2,2.60642E-2],"categories":[],"categories_nodes":[],"categories_segments":[],"categories_sizes":[],"default_left":[0,0,0,0,0,0,0,0,0,0,0,0,0,0,0,0,0,0,0,0,0,0,0,0,0,0,0,0,0,0,0,0,0,0,0,0,0,0,0,0,0,0,0,0,0,0,0,0,0,0,0,0,0,0,0,0,0,0,0,0,0],"id":13,"left_children":[1,3,5,-1,7,9,11,13,15,17,19,21,23,25,27,29,-1,31,-1,-1,33,-1,35,-1,37,39,-1,41,43,-1,45,47,49,51,53,55,57,-1,59,-1,-1,-1,-1,-1,-1,-1,-1,-1,-1,-1,-1,-1,-1,-1,-1,-1,-1,-1,-1,-1,-1],"loss_changes":[5.0873047E1,9.703268E0,7.190464E0,0E0,1.3478508E0,7.281579E-1,8.659477E-1,1.5114212E-1,2.0763793E0,1.9783039E0,7.2947454E-1,8.0857277E-1,5.73761E-1,1.6279805E0,3.0819225E-1,1.4159461E0,0E0,3.2294315E-1,0E0,0E0,4.136623E-1,0E0,2.9090595E-1,0E0,2.049573E0,3.6042607E-1,0E0,3.3823967E-2,1.2948728E0,0E0,1.702647E0,9.472206E-1,5.5157816E-1,9.0769243E-1,6.9534516E-1,5.245619E-1,1.5669582E0,0E0,2.1978378E-1,0E0,0E0,0E0,0E0,0E0,0E0,0E0,0E0,0E0,0E0,0E0,0E0,0E0,0E0,0E0,0E0,0E0,0E0,0E0,0E0,0E0,0E0],"parents":[2147483647,0,0,1,1,2,2,4,4,5,5,6,6,7,7,8,8,9,9,10,10,11,11,12,12,13,13,14,14,15,15,17,17,20,20,22,22,24,24,25,25,27,27,28,28,30,30,31,31,32,32,33,33,34,34,35,35,36,36,38,38],"right_children":[2,4,6,-1,8,10,12,14,16,18,20,22,24,26,28,30,-1,32,-1,-1,34,-1,36,-1,38,40,-1,42,44,-1,46,48,50,52,54,56,58,-1,60,-1,-1,-1,-1,-1,-1,-1,-1,-1,-1,-1,-1,-1,-1,-1,-1,-1,-1,-1,-1,-1,-1],"split_conditions":[5.106355E-1,2.554886E-1,6.708436E-1,-3.731964E-2,3.810115E-1,5.5477333E-1,7.762812E-1,2.7534562E-1,4.9829662E-1,5.482124E-1,5.571347E-1,6.762085E-1,8.0250764E-1,2.7155074E-1,3.2734156E-1,3.8650107E-1,-2.7681036E-2,5.404498E-1,-2.9874492E-2,2.71438E-2,6.303941E-1,3.4894012E-2,7.162418E-1,3.254276E-2,8.05976E-1,2.6263186E-1,2.1972327E-2,2.8088355E-1,3.3439684E-1,1.7607296E-2,4.5888826E-1,5.288301E-1,5.4525715E-1,6.1510634E-1,6.4615375E-1,6.829984E-1,7.238435E-1,-1.1988411E-2,8.640128E-1,-3.54356E-3,-2.6869783E-2,-1.0760981E-2,-2.2149613E-2,1.0524269E-2,-1.6645856E-2,-1.1967548E-2,1.0170162E-3,5.2875206E-3,-1.3172063E-2,2.2169089E-2,-4.581785E-3,6.646927E-3,-9.1362E-3,1.9411843E-2,4.3518376E-3,6.714304E-3,2.0320235E-2,-6.521909E-3,1.5951907E-2,1.8318431E-2,2.60642E-2],"split_indices":[0,0,0,0,0,0,0,0,0,0,0,0,0,0,0,0,0,0,0,0,0,0,0,0,0,0,0,0,0,0,0,0,0,0,0,0,0,0,0,0,0,0,0,0,0,0,0,0,0,0,0,0,0,0,0,0,0,0,0,0,0],"split_type":[0,0,0,0,0,0,0,0,0,0,0,0,0,0,0,0,0,0,0,0,0,0,0,0,0,0,0,0,0,0,0,0,0,0,0,0,0,0,0,0,0,0,0,0,0,0,0,0,0,0,0,0,0,0,0,0,0,0,0,0,0],"sum_hessian":[5.9439496E2,2.5495459E2,3.3944034E2,4.403907E1,2.1091553E2,1.4871722E2,1.9072313E2,8.646158E1,1.2445394E2,5.03126E1,9.8404625E1,1.0001255E2,9.071057E1,9.931138E0,7.653044E1,1.1305998E2,1.1393958E1,4.633634E1,3.97626E0,3.61201E0,9.479262E1,5.0017643E0,9.501079E1,1.7138708E1,7.357187E1,7.6508007E0,2.2803369E0,3.3068718E1,4.3461723E1,5.104802E0,1.07955185E2,3.956754E1,6.7688007E0,6.3292873E1,3.1499744E1,4.8987408E1,4.6023376E1,3.8853097E0,6.9686554E1,2.7834086E0,4.8673925E0,3.6492279E0,2.941949E1,4.242623E0,3.92191E1,6.8551956E1,3.9403225E1,3.1736279E1,7.8312607E0,4.1607385E0,2.6080623E0,5.325187E1,1.0041004E1,1.3271147E1,1.8228598E1,1.0198884E1,3.878852E1,9.158513E0,3.6864864E1,3.1441769E1,3.824479E1],"tree_param":{"num_deleted":"0","num_feature":"2","num_nodes":"61","size_leaf_vector":"1"}},{"base_weights":[-3.6314046E-3,-4.2349738E-1,1.6791432E-1,-3.680165E-2,-3.5094455E-1,4.7356915E-2,4.2620164E-1,-8.16579E-2,-3.6328188E-1,2.845218E-2,1.55275E-1,3.588784E-1,4.8998564E-1,-1.4951921E-2,7.201494E-3,-4.8327675E-1,-3.1955966E-1,6.0352765E-2,-1.5397775E-1,1.1091414E-2,-2.2659941E-1,3.9417258E-1,-1.6176252E-2,2.7672509E-2,3.127878E-1,-3.9655212E-1,-3.6045294E-2,-1.658394E-1,-3.424957E-1,4.5124866E-2,5.1687884E-1,-2.9207632E-2,-8.087369E-2,-1.4239526E-2,-6.162733E-3,3.6176842E-1,3.483499E-2,-2.0586946E-3,1.7148707E-2,-2.4104608E-2,2.03198E-2,-1.4028375E-2,-2.1477228E-3,-2.1663472E-2,-1.4321751E-2,2.736521E-3,-2.1910163E-2,2.9472396E-2,8.23858E-3,6.0453784E-4,-1.1555033E-2,2.0163707E-2,1.3569056E-3],"categories":[],"categories_nodes":[],"categories_segments":[],"categories_sizes":[],"default_left":[0,0,0,0,0,0,0,0,0,0,0,0,0,0,0,0,0,0,0,0,0,0,0,0,0,0,0,0,0,0,0,0,0,0,0,0,0,0,0,0,0,0,0,0,0,0,0,0,0,0,0,0,0],"id":14,"left_children":[1,3,5,-1,7,9,11,13,15,17,19,21,23,-1,-1,25,27,29,31,-1,33,35,-1,-1,37,39,-1,41,43,45,47,-1,49,-1,-1,51,-1,-1,-1,-1,-1,-1,-1,-1,-1,-1,-1,-1,-1,-1,-1,-1,-1],"loss_changes":[4.1749367E1,3.5540752E0,1.2794061E1,0E0,4.3001747E-1,5.702815E-1,3.8596725E-1,4.0372956E-1,5.3816223E-1,1.4113966E0,1.1117479E0,1.7505426E0,5.5161667E-1,0E0,0E0,4.0044785E-1,2.9474926E-1,1.4072876E0,1.0892942E0,0E0,5.1504374E-3,3.8049603E-1,0E0,0E0,2.2027683E-1,2.0243878E0,0E0,1.9779459E-1,3.1264496E-1,9.536204E-1,7.016504E-2,0E0,4.50422E-1,0E0,0E0,8.274245E-1,0E0,0E0,0E0,0E0,0E0,0E0,0E0,0E0,0E0,0E0,0E0,0E0,0E0,0E0,0E0,0E0,0E0],"parents":[2147483647,0,0,1,1,2,2,4,4,5,5,6,6,7,7,8,8,9,9,10,10,11,11,12,12,15,15,16,16,17,17,18,18,20,20,21,21,24,24,25,25,27,27,28,28,29,29,30,30,32,32,35,35],"right_children":[2,4,6,-1,8,10,12,14,16,18,20,22,24,-1,-1,26,28,30,32,-1,34,36,-1,-1,38,40,-1,42,44,46,48,-1,50,-1,-1,52,-1,-1,-1,-1,-1,-1,-1,-1,-1,-1,-1,-1,-1,-1,-1,-1,-1],"split_conditions":[4.3108842E-1,1.8775588E-1,7.20646E-1,-3.680165E-2,2.0105623E-1,6.764517E-1,8.382155E-1,1.913875E-1,2.9585615E-1,6.323692E-1,7.1602017E-1,8.339635E-1,9.5329505E-1,-1.4951921E-2,7.201494E-3,2.7455646E-1,3.1849733E-1,6.2964016E-1,6.3448894E-1,1.1091414E-2,7.170755E-1,8.259325E-1,-1.6176252E-2,2.7672509E-2,9.6645415E-1,2.7087986E-1,-3.6045294E-2,3.0734274E-1,3.6906764E-1,6.267252E-1,6.30868E-1,-2.9207632E-2,6.6071266E-1,-1.4239526E-2,-6.162733E-3,8.0417866E-1,3.483499E-2,-2.0586946E-3,1.7148707E-2,-2.4104608E-2,2.03198E-2,-1.4028375E-2,-2.1477228E-3,-2.1663472E-2,-1.4321751E-2,2.736521E-3,-2.1910163E-2,2.9472396E-2,8.23858E-3,6.0453784E-4,-1.1555033E-2,2.0163707E-2,1.3569056E-3],"split_indices":[1,1,1,0,1,1,1,1,1,1,1,1,1,0,0,1,1,1,1,0,1,1,0,0,1,1,0,1,1,1,1,0,1,0,0,1,0,0,0,0,0,0,0,0,0,0,0,0,0,0,0,0,0],"split_type":[0,0,0,0,0,0,0,0,0,0,0,0,0,0,0,0,0,0,0,0,0,0,0,0,0,0,0,0,0,0,0,0,0,0,0,0,0,0,0,0,0,0,0,0,0,0,0,0,0,0,0,0,0],"sum_hessian":[5.77654E2,1.6712914E2,4.1052487E2,2.9765135E1,1.37364E2,2.8069287E2,1.29832E2,6.3513684E0,1.3101263E2,2.3992693E2,4.076596E1,6.638739E1,6.3444607E1,3.0696752E0,3.2816935E0,3.230331E1,9.870931E1,2.0478618E2,3.5140736E1,3.5072598E1,5.693364E0,6.3524265E1,2.8631256E0,4.5150368E1,1.8294239E1,2.5621372E1,6.681941E0,1.3884445E1,8.482487E1,1.992392E2,5.546986E0,4.0889487E0,3.1051788E1,2.519153E0,3.174211E0,5.936175E1,4.1625133E0,1.408958E0,1.688528E1,2.3515776E1,2.1055965E0,6.516927E0,7.367518E0,2.9816793E1,5.5008076E1,1.9622621E2,3.0129921E0,4.0402374E0,1.5067488E0,1.9749678E1,1.1302111E1,5.2628826E1,6.732927E0],"tree_param":{"num_deleted":"0","num_feature":"2","num_nodes":"53","size_leaf_vector":"1"}},{"base_weights":[4.3567913E-3,-3.8111562E-1,2.0879255E-1,-3.483708E-2,-2.795618E-1,8.157047E-2,3.4938478E-1,-3.6573753E-1,-2.2094227E-1,-1.3974749E-2,1.4089805E-1,2.977879E-1,4.6589833E-1,-2.9892793E-1,-3.1219063E-2,-1.6784157E-1,-3.3564255E-1,1.5175678E-2,-3.0482385E-2,1.9117799E-2,1.24078415E-1,3.1791118E-1,-7.3256694E-2,3.350812E-2,4.2869002E-1,8.723096E-3,-3.246782E-1,-2.1049659E-1,1.10215686E-1,-4.4264287E-1,-1.1501968E-1,-3.1850826E-2,1.2980701E-1,1.3384391E-1,-1.05420975E-2,6.112401E-1,2.9481655E-1,9.372399E-3,-1.0623759E-2,3.898239E-1,3.5487235E-2,-8.048649E-3,7.407459E-3,-2.6303036E-2,-1.3606571E-2,-1.7352187E-3,-1.1833671E-2,1.4752844E-2,6.432929E-5,-1.3863133E-2,-2.7789457E-2,2.2293758E-2,-2.1866806E-2,2.0420232E-3,-1.490667E-2,1.3185765E-2,-1.2049106E-3,-6.818568E-4,7.948624E-3,1.4234182E-2,3.431311E-2,1.2377154E-2,2.3397198E-2,-5.9257066E-3,9.171811E-3,2.187684E-2,3.224219E-4],"categories":[],"categories_nodes":[],"categories_segments":[],"categories_sizes":[],"default_left":[0,0,0,0,0,0,0,0,0,0,0,0,0,0,0,0,0,0,0,0,0,0,0,0,0,0,0,0,0,0,0,0,0,0,0,0,0,0,0,0,0,0,0,0,0,0,0,0,0,0,0,0,0,0,0,0,0,0,0,0,0,0,0,0,0,0,0],"id":15,"left_children":[1,3,5,-1,7,9,11,13,15,17,19,21,23,25,-1,27,29,31,-1,-1,33,35,37,-1,39,41,43,45,47,49,51,53,55,57,-1,59,61,63,-1,65,-1,-1,-1,-1,-1,-1,-1,-1,-1,-1,-1,-1,-1,-1,-1,-1,-1,-1,-1,-1,-1,-1,-1,-1,-1,-1,-1],"loss_changes":[4.6892178E1,6.4151974E0,6.9260254E0,0E0,7.1577835E-1,1.1663735E0,9.698143E-1,8.9013386E-1,5.306606E-1,1.3914323E0,4.6759582E-1,9.982319E-1,1.2939072E-1,4.1034985E-1,0E0,8.2827115E-1,6.4543986E-1,4.184746E-1,0E0,0E0,4.2083E-1,6.601057E-1,8.861208E-2,0E0,2.6023388E-1,1.4089097E-1,3.5942173E-1,2.641778E-1,1.9460759E-1,2.1103144E-1,2.1809292E0,1.082695E0,4.712213E-1,4.3669677E-1,0E0,3.6070347E-3,8.410902E-1,1.4824802E-1,0E0,8.2761717E-1,0E0,0E0,0E0,0E0,0E0,0E0,0E0,0E0,0E0,0E0,0E0,0E0,0E0,0E0,0E0,0E0,0E0,0E0,0E0,0E0,0E0,0E0,0E0,0E0,0E0,0E0,0E0],"parents":[2147483647,0,0,1,1,2,2,4,4,5,5,6,6,7,7,8,8,9,9,10,10,11,11,12,12,13,13,15,15,16,16,17,17,20,20,21,21,22,22,24,24,25,25,26,26,27,27,28,28,29,29,30,30,31,31,32,32,33,33,35,35,36,36,37,37,39,39],"right_children":[2,4,6,-1,8,10,12,14,16,18,20,22,24,26,-1,28,30,32,-1,-1,34,36,38,-1,40,42,44,46,48,50,52,54,56,58,-1,60,62,64,-1,66,-1,-1,-1,-1,-1,-1,-1,-1,-1,-1,-1,-1,-1,-1,-1,-1,-1,-1,-1,-1,-1,-1,-1,-1,-1,-1,-1],"split_conditions":[4.5888826E-1,2.6977324E-1,6.672511E-1,-3.483708E-2,3.651135E-1,5.274928E-1,8.3031756E-1,3.529746E-1,4.3259636E-1,5.2629536E-1,5.3015494E-1,8.088536E-1,8.409674E-1,2.7534562E-1,-3.1219063E-2,4.2423114E-1,4.508517E-1,5.106355E-1,-3.0482385E-2,1.9117799E-2,6.6351914E-1,6.762085E-1,8.2459193E-1,3.350812E-2,9.717581E-1,2.7155074E-1,2.9250047E-1,3.6961952E-1,4.2739895E-1,4.4364253E-1,4.518176E-1,5.031532E-1,5.1738644E-1,5.5477333E-1,-1.05420975E-2,6.708436E-1,7.762812E-1,8.1474864E-1,-1.0623759E-2,9.4277036E-1,3.5487235E-2,-8.048649E-3,7.407459E-3,-2.6303036E-2,-1.3606571E-2,-1.7352187E-3,-1.1833671E-2,1.4752844E-2,6.432929E-5,-1.3863133E-2,-2.7789457E-2,2.2293758E-2,-2.1866806E-2,2.0420232E-3,-1.490667E-2,1.3185765E-2,-1.2049106E-3,-6.818568E-4,7.948624E-3,1.4234182E-2,3.431311E-2,1.2377154E-2,2.3397198E-2,-5.9257066E-3,9.171811E-3,2.187684E-2,3.224219E-4],"split_indices":[0,0,0,0,0,0,0,0,0,0,0,0,0,0,0,0,0,0,0,0,0,0,0,0,0,0,0,0,0,0,0,0,0,0,0,0,0,0,0,0,0,0,0,0,0,0,0,0,0,0,0,0,0,0,0,0,0,0,0,0,0,0,0,0,0,0,0],"split_type":[0,0,0,0,0,0,0,0,0,0,0,0,0,0,0,0,0,0,0,0,0,0,0,0,0,0,0,0,0,0,0,0,0,0,0,0,0,0,0,0,0,0,0,0,0,0,0,0,0,0,0,0,0,0,0,0,0,0,0,0,0,0,0,0,0,0,0],"sum_hessian":[5.930358E2,2.0522017E2,3.8781567E2,4.852994E1,1.5669023E2,2.0441788E2,1.833978E2,6.1314064E1,9.537617E1,7.85998E1,1.2581807E2,1.2957335E2,5.382445E1,5.0440624E1,1.0873441E1,6.687811E1,2.8498047E1,7.586188E1,2.7379265E0,6.77828E0,1.19039795E2,1.230434E2,6.529944E0,5.672546E0,4.8151905E1,3.9468582E0,4.6493767E1,5.8193924E1,8.684192E0,1.8513037E1,9.98501E0,5.4305614E1,2.155626E1,1.16250565E2,2.789225E0,7.121771E0,1.1592163E2,4.6831026E0,1.8468413E0,4.439911E1,3.7527983E0,1.7104825E0,2.2363756E0,7.7564335E0,3.873733E1,7.84384E0,5.0350082E1,2.5864885E0,6.0977035E0,8.922274E0,9.590763E0,3.5040023E0,6.481008E0,4.3325115E1,1.0980502E1,1.1145449E1,1.041081E1,1.6990366E1,9.92602E1,2.226203E0,4.895568E0,9.296643E1,2.2955196E1,2.8836145E0,1.7994881E0,3.9359375E1,5.0397344E0],"tree_param":{"num_deleted":"0","num_feature":"2","num_nodes":"67","size_leaf_vector":"1"}},{"base_weights":[2.5144515E-3,-2.544775E-1,2.649669E-1,-4.494807E-1,-1.431304E-1,1.374233E-1,4.3577468E-1,-3.5677955E-2,-3.8174495E-1,-2.2755843E-1,-9.992574E-2,1.7571803E-2,1.0528616E-1,3.367933E-1,5.9172684E-1,4.572298E-3,-3.991511E-1,9.248087E-3,-2.4941963E-1,1.8729007E-2,-1.1499288E-1,-3.6206147E-1,1.3084589E-1,5.4009E-1,2.9778367E-1,3.2579307E-2,4.6747258E-1,-3.7292898E-1,-2.9433502E-2,-1.6195948E-1,-3.1944132E-1,-2.1436526E-2,-9.651533E-2,1.6285109E-3,-2.2860901E-2,3.0370394E-2,1.1474879E-1,3.1400764E-1,3.2979358E-2,-5.9643526E-2,3.4429273E-1,-8.319843E-3,2.8848127E-2,-2.129653E-2,-1.27967885E-2,-1.1886711E-2,1.8182738E-2,-2.1232104E-2,-1.1595172E-2,1.3452676E-2,-5.8909073E-3,-4.00919E-3,7.1347603E-3,2.2293521E-2,8.4920805E-3,-7.5466842E-3,4.24845E-3,3.1324685E-2,1.5141248E-2],"categories":[],"categories_nodes":[],"categories_segments":[],"categories_sizes":[],"default_left":[0,0,0,0,0,0,0,0,0,0,0,0,0,0,0,0,0,0,0,0,0,0,0,0,0,0,0,0,0,0,0,0,0,0,0,0,0,0,0,0,0,0,0,0,0,0,0,0,0,0,0,0,0,0,0,0,0,0,0],"id":16,"left_children":[1,3,5,7,9,11,13,-1,15,17,19,-1,21,23,25,-1,27,-1,29,-1,31,33,35,37,39,-1,41,43,-1,45,47,-1,49,-1,-1,-1,51,53,-1,55,57,-1,-1,-1,-1,-1,-1,-1,-1,-1,-1,-1,-1,-1,-1,-1,-1,-1,-1],"loss_changes":[3.8423958E1,6.185547E0,6.08016E0,1.5906277E0,6.509445E-1,1.0828114E0,1.6534615E0,0E0,7.3693657E-1,6.028743E-1,9.292656E-1,0E0,1.7553948E0,4.3986797E-1,3.2185555E-2,0E0,1.890192E-1,0E0,3.0991793E-1,0E0,6.5950704E-1,3.0329144E-1,9.7594786E-1,8.912897E-2,1.1140261E0,0E0,1.3633354E0,3.5572052E-1,0E0,1.2130327E0,1.9408011E-1,0E0,9.3092966E-1,0E0,0E0,0E0,7.3645115E-1,3.263718E-2,0E0,1.24064386E-1,4.9314642E-1,0E0,0E0,0E0,0E0,0E0,0E0,0E0,0E0,0E0,0E0,0E0,0E0,0E0,0E0,0E0,0E0,0E0,0E0],"parents":[2147483647,0,0,1,1,2,2,3,3,4,4,5,5,6,6,8,8,9,9,10,10,12,12,13,13,14,14,16,16,18,18,20,20,21,21,22,22,23,23,24,24,26,26,27,27,29,29,30,30,32,32,36,36,37,37,39,39,40,40],"right_children":[2,4,6,8,10,12,14,-1,16,18,20,-1,22,24,26,-1,28,-1,30,-1,32,34,36,38,40,-1,42,44,-1,46,48,-1,50,-1,-1,-1,52,54,-1,56,58,-1,-1,-1,-1,-1,-1,-1,-1,-1,-1,-1,-1,-1,-1,-1,-1,-1,-1],"split_conditions":[5.4509985E-1,3.656874E-1,7.26618E-1,1.4438193E-1,4.3108842E-1,5.775843E-1,8.735446E-1,-3.5677955E-2,1.4979956E-1,3.685498E-1,4.3398184E-1,1.7571803E-2,5.8750486E-1,7.4255234E-1,9.5329505E-1,4.572298E-3,3.4744066E-1,9.248087E-3,4.012584E-1,1.8729007E-2,4.4253364E-1,5.7871604E-1,5.895689E-1,7.3616236E-1,7.532131E-1,3.2579307E-2,9.6645415E-1,3.012854E-1,-2.9433502E-2,4.0012413E-1,4.1263837E-1,-2.1436526E-2,4.452763E-1,1.6285109E-3,-2.2860901E-2,3.0370394E-2,6.006294E-1,7.3001504E-1,3.2979358E-2,7.5121516E-1,7.631717E-1,-8.319843E-3,2.8848127E-2,-2.129653E-2,-1.27967885E-2,-1.1886711E-2,1.8182738E-2,-2.1232104E-2,-1.1595172E-2,1.3452676E-2,-5.8909073E-3,-4.00919E-3,7.1347603E-3,2.2293521E-2,8.4920805E-3,-7.5466842E-3,4.24845E-3,3.1324685E-2,1.5141248E-2],"split_indices":[1,1,1,1,1,1,1,0,1,1,1,0,1,1,1,0,1,0,1,0,1,1,1,1,1,0,1,1,0,1,1,0,1,0,0,0,1,1,0,1,1,0,0,0,0,0,0,0,0,0,0,0,0,0,0,0,0,0,0],"split_type":[0,0,0,0,0,0,0,0,0,0,0,0,0,0,0,0,0,0,0,0,0,0,0,0,0,0,0,0,0,0,0,0,0,0,0,0,0,0,0,0,0,0,0,0,0,0,0,0,0,0,0,0,0,0,0,0,0,0,0],"sum_hessian":[5.6768164E2,2.8683994E2,2.8084167E2,1.0315205E2,1.8368791E2,1.6181651E2,1.1902517E2,1.911088E1,8.404116E1,6.0735394E1,1.22952515E2,1.9829472E1,1.4198705E2,7.474489E1,4.4280285E1,2.8308227E0,8.121034E1,2.6811652E0,5.805423E1,3.0496557E0,1.19902855E2,6.680056E0,1.3530698E2,9.965442E0,6.477944E1,2.7019648E1,1.7260637E1,7.394673E1,7.2636075E0,2.7285915E1,3.0768312E1,5.4340024E0,1.1446886E2,1.4255902E0,5.254466E0,3.220766E0,1.3208621E2,4.7003546E0,5.265087E0,7.4261646E0,5.735328E1,2.4657779E0,1.4794859E1,4.9074028E1,2.4872704E1,2.4326595E1,2.959321E0,1.2225307E1,1.8543005E1,5.662751E0,1.0880611E2,1.632769E1,1.1575853E2,1.3619125E0,3.338442E0,4.5255747E0,2.9005897E0,5.5405016E0,5.181278E1],"tree_param":{"num_deleted":"0","num_feature":"2","num_nodes":"59","size_leaf_vector":"1"}},{"base_weights":[2.1183519E-2,-2.6990956E-1,2.1224502E-1,-6.0674006E-1,-2.109609E-1,9.095371E-2,4.285947E-1,-3.5066124E-2,-4.4361305E-1,-2.8551695E-1,-9.950485E-2,1.8193604E-2,7.544433E-2,3.0148423E-1,5.3344274E-1,2.5974393E-3,-2.5749763E-2,1.3371023E-2,-3.004809E-1,-2.5595257E-2,-3.5203332E-1,-3.182403E-2,8.639093E-2,3.2432473E-1,-3.994216E-3,4.794986E-1,3.223627E-2,-2.7283106E-2,-2.8113797E-1,-6.2025685E-2,1.4697106E-1,-2.0728871E-2,-6.917336E-3,5.7940774E-2,1.8078622E-1,3.8572136E-1,2.2698925E-1,2.6018986E-2,-4.188576E-3,1.6376503E-2,-1.4985594E-2,-2.880263E-4,-6.844207E-3,1.2124734E-2,-6.2205056E-3,4.1672112E-3,-1.5400112E-2,1.0344564E-2,-1.2984444E-2,1.7030165E-2,2.998967E-2,6.507188E-3,1.9849472E-2],"categories":[],"categories_nodes":[],"categories_segments":[],"categories_sizes":[],"default_left":[0,0,0,0,0,0,0,0,0,0,0,0,0,0,0,0,0,0,0,0,0,0,0,0,0,0,0,0,0,0,0,0,0,0,0,0,0,0,0,0,0,0,0,0,0,0,0,0,0,0,0,0,0],"id":17,"left_children":[1,3,5,7,9,11,13,-1,15,17,19,-1,21,23,25,-1,-1,-1,27,29,31,-1,33,35,-1,37,-1,-1,39,41,43,-1,-1,45,47,49,51,-1,-1,-1,-1,-1,-1,-1,-1,-1,-1,-1,-1,-1,-1,-1,-1],"loss_changes":[3.1390692E1,4.313507E0,8.9012375E0,1.9470596E-1,1.5662689E0,9.019606E-1,1.4666786E0,0E0,5.4864717E-1,1.0273457E0,1.4552581E0,0E0,1.6839807E0,5.2675724E-1,8.477211E-2,0E0,0E0,0E0,3.7731552E-1,3.9743504E-1,1.7899275E-1,0E0,5.4474854E-1,2.378254E-1,0E0,1.1511459E0,0E0,0E0,1.2941246E0,2.1698871E-1,3.1697756E-1,0E0,0E0,1.5161798E0,5.9886336E-1,1.0436869E-1,3.3506536E-1,0E0,0E0,0E0,0E0,0E0,0E0,0E0,0E0,0E0,0E0,0E0,0E0,0E0,0E0,0E0,0E0],"parents":[2147483647,0,0,1,1,2,2,3,3,4,4,5,5,6,6,8,8,9,9,10,10,12,12,13,13,14,14,18,18,19,19,20,20,22,22,23,23,25,25,28,28,29,29,30,30,33,33,34,34,35,35,36,36],"right_children":[2,4,6,8,10,12,14,-1,16,18,20,-1,22,24,26,-1,-1,-1,28,30,32,-1,34,36,-1,38,-1,-1,40,42,44,-1,-1,46,48,50,52,-1,-1,-1,-1,-1,-1,-1,-1,-1,-1,-1,-1,-1,-1,-1,-1],"split_conditions":[4.9438888E-1,1.913875E-1,7.26618E-1,1.4438193E-1,4.1816515E-1,5.066705E-1,8.259325E-1,-3.5066124E-2,1.4979956E-1,2.0105623E-1,4.7927812E-1,1.8193604E-2,5.072749E-1,8.149999E-1,9.475913E-1,2.5974393E-3,-2.5749763E-2,1.3371023E-2,2.222096E-1,4.690088E-1,4.9074373E-1,-3.182403E-2,6.709878E-1,7.7451116E-1,-3.994216E-3,9.3267125E-1,3.223627E-2,-2.7283106E-2,2.288872E-1,4.4858506E-1,4.773578E-1,-2.0728871E-2,-6.917336E-3,6.6071266E-1,7.225951E-1,7.656243E-1,7.973717E-1,2.6018986E-2,-4.188576E-3,1.6376503E-2,-1.4985594E-2,-2.880263E-4,-6.844207E-3,1.2124734E-2,-6.2205056E-3,4.1672112E-3,-1.5400112E-2,1.0344564E-2,-1.2984444E-2,1.7030165E-2,2.998967E-2,6.507188E-3,1.9849472E-2],"split_indices":[1,1,1,1,1,1,1,0,1,1,1,0,1,1,1,0,0,0,1,1,1,0,1,1,0,1,0,0,1,1,1,0,0,1,1,1,1,0,0,0,0,0,0,0,0,0,0,0,0,0,0,0,0],"split_type":[0,0,0,0,0,0,0,0,0,0,0,0,0,0,0,0,0,0,0,0,0,0,0,0,0,0,0,0,0,0,0,0,0,0,0,0,0,0,0,0,0,0,0,0,0,0,0,0,0,0,0,0,0],"sum_hessian":[5.623814E2,2.2268913E2,3.3969226E2,3.1783981E1,1.9090515E2,2.1857423E2,1.2111804E2,1.803051E1,1.3753471E1,1.1345214E2,7.7453E1,1.0545407E1,2.0802882E2,5.6498547E1,6.461949E1,1.7659365E0,1.1987535E1,2.5448694E0,1.1090727E2,6.076869E1,1.6684317E1,2.2848794E0,2.0574394E2,5.3447132E1,3.051417E0,4.709774E1,1.752175E1,6.1202435E0,1.0478703E2,5.070495E1,1.0063739E1,1.2179399E1,4.504918E0,1.5933513E2,4.6408806E1,3.0957289E1,2.2489843E1,4.398177E1,3.1159718E0,2.610396E0,1.02176636E2,2.956228E1,2.1142668E1,7.522376E0,2.5413632E0,1.4971434E2,9.620793E0,4.4312874E1,2.0959313E0,2.7708485E1,3.2488036E0,1.5452456E1,7.0373864E0],"tree_param":{"num_deleted":"0","num_feature":"2","num_nodes":"53","size_leaf_vector":"1"}},{"base_weights":[1.3574532E-2,-2.8851527E-1,2.1928056E-1,-3.2354932E-2,-2.3669197E-1,1.2606414E-1,4.2588973E-1,-2.9109687E-1,-1.0800823E-1,8.981631E-2,2.3590626E-1,3.462206E-1,2.5376314E-2,-2.7730456E-1,-2.8914262E-2,2.452826E-1,-1.4190657E-1,1.1217209E-1,-2.2210604E-1,2.7065003E-1,-1.2687742E-2,3.0399164E-2,2.8758395E-1,-2.895312E-1,9.188168E-3,1.6956478E-2,5.375321E-3,-8.301043E-2,-2.5948328E-1,1.6597537E-2,1.5767871E-1,-2.8082934E-1,1.2229342E-3,3.2145885E-1,2.0302664E-1,-6.5160254E-3,3.070549E-1,-1.8517507E-2,-1.2435051E-2,-4.7577964E-3,6.324758E-3,-1.4552022E-2,-8.586071E-3,1.6280303E-2,-1.5965507E-3,2.2860404E-2,6.219431E-3,-2.101071E-2,-9.532931E-3,9.005706E-3,1.9186838E-2,1.2100599E-3,1.6633444E-2,1.729254E-2,8.800145E-3],"categories":[],"categories_nodes":[],"categories_segments":[],"categories_sizes":[],"default_left":[0,0,0,0,0,0,0,0,0,0,0,0,0,0,0,0,0,0,0,0,0,0,0,0,0,0,0,0,0,0,0,0,0,0,0,0,0,0,0,0,0,0,0,0,0,0,0,0,0,0,0,0,0,0,0],"id":18,"left_children":[1,3,5,-1,7,9,11,13,15,17,19,21,-1,23,-1,25,27,29,31,33,-1,-1,35,37,-1,-1,-1,39,41,43,45,47,-1,49,51,-1,53,-1,-1,-1,-1,-1,-1,-1,-1,-1,-1,-1,-1,-1,-1,-1,-1,-1,-1],"loss_changes":[3.5697346E1,4.1715984E0,6.5273438E0,0E0,1.4031868E0,9.219954E-1,5.125046E-1,4.0778542E-1,7.8307855E-1,1.2781982E0,1.058172E0,6.954355E-1,0E0,8.355732E-1,0E0,3.9009273E-2,3.7763655E-1,7.296777E-1,1.8576235E-1,1.229949E-1,0E0,0E0,4.3238807E-1,3.5531044E-1,0E0,0E0,0E0,1.1350438E-1,1.9999743E-3,8.4156525E-1,1.0793126E0,4.630637E-2,0E0,1.9119215E-1,5.9983754E-1,0E0,1.748972E-1,0E0,0E0,0E0,0E0,0E0,0E0,0E0,0E0,0E0,0E0,0E0,0E0,0E0,0E0,0E0,0E0,0E0,0E0],"parents":[2147483647,0,0,1,1,2,2,4,4,5,5,6,6,7,7,8,8,9,9,10,10,11,11,13,13,15,15,16,16,17,17,18,18,19,19,22,22,23,23,27,27,28,28,29,29,30,30,31,31,33,33,34,34,36,36],"right_children":[2,4,6,-1,8,10,12,14,16,18,20,22,-1,24,-1,26,28,30,32,34,-1,-1,36,38,-1,-1,-1,40,42,44,46,48,-1,50,52,-1,54,-1,-1,-1,-1,-1,-1,-1,-1,-1,-1,-1,-1,-1,-1,-1,-1,-1,-1],"split_conditions":[4.9438888E-1,1.8775588E-1,7.5121516E-1,-3.2354932E-2,4.4253364E-1,6.764517E-1,8.590649E-1,4.3398184E-1,4.452763E-1,6.6071266E-1,7.4255234E-1,7.631717E-1,2.5376314E-2,4.3108842E-1,-2.8914262E-2,4.434254E-1,4.7927812E-1,5.545275E-1,6.709878E-1,7.0982736E-1,-1.2687742E-2,3.0399164E-2,7.656243E-1,3.012854E-1,9.188168E-3,1.6956478E-2,5.375321E-3,4.773578E-1,4.9074373E-1,5.029608E-1,5.6425256E-1,6.6483396E-1,1.2229342E-3,6.865875E-1,7.20646E-1,-6.5160254E-3,8.339635E-1,-1.8517507E-2,-1.2435051E-2,-4.7577964E-3,6.324758E-3,-1.4552022E-2,-8.586071E-3,1.6280303E-2,-1.5965507E-3,2.2860404E-2,6.219431E-3,-2.101071E-2,-9.532931E-3,9.005706E-3,1.9186838E-2,1.2100599E-3,1.6633444E-2,1.729254E-2,8.800145E-3],"split_indices":[1,1,1,0,1,1,1,1,1,1,1,1,0,1,0,1,1,1,1,1,0,0,1,1,0,0,0,1,1,1,1,1,0,1,1,0,1,0,0,0,0,0,0,0,0,0,0,0,0,0,0,0,0,0,0],"split_type":[0,0,0,0,0,0,0,0,0,0,0,0,0,0,0,0,0,0,0,0,0,0,0,0,0,0,0,0,0,0,0,0,0,0,0,0,0,0,0,0,0,0,0,0,0,0,0,0,0,0,0,0,0,0,0],"sum_hessian":[5.7243274E2,2.317271E2,3.4070563E2,2.7810432E1,2.0391667E2,2.3588907E2,1.0481656E2,1.4243562E2,6.1481037E1,1.7872696E2,5.7162106E1,5.5699963E1,4.91166E1,1.3778409E2,4.651542E0,4.836708E0,5.664433E1,1.6737166E2,1.1355308E1,5.379254E1,3.3695645E0,8.479147E0,4.7220814E1,1.3458714E2,3.1969476E0,2.0077004E0,2.8290076E0,3.8876465E1,1.7767862E1,5.4426987E1,1.1294467E2,9.058835E0,2.2964725E0,2.8571608E1,2.5220934E1,1.8487203E0,4.5372093E1,4.2463917E1,9.212322E1,3.7262108E1,1.6143589E0,1.1365009E1,6.4028535E0,6.61242E0,4.7814564E1,1.0023519E1,1.0292115E2,2.1206107E0,6.9382243E0,9.929015E0,1.8642593E1,1.1098543E1,1.4122391E1,3.3743755E1,1.162834E1],"tree_param":{"num_deleted":"0","num_feature":"2","num_nodes":"55","size_leaf_vector":"1"}},{"base_weights":[4.4471393E-3,-3.5103446E-1,2.0451365E-1,-3.4324914E-2,-2.5400245E-1,9.233415E-2,3.0742836E-1,-2.2077653E-1,-4.780819E-1,1.6322326E-2,1.6946645E-1,2.4544738E-1,3.8763723E-1,-3.3364725E-1,-9.155074E-2,-3.4283694E-2,-2.932849E-1,4.9940944E-2,-1.799652E-2,2.5319389E-1,-1.4725597E-2,2.6191804E-1,-1.414531E-2,3.576324E-2,3.4313706E-1,-2.1074964E-1,-3.8430822E-1,-1.3888168E-1,6.1140817E-2,-1.0236853E-1,-2.201114E-2,2.8827512E-1,1.4104505E-2,2.6387641E-2,2.0492634E-1,-1.6542253E-1,1.03418656E-1,3.0377966E-1,1.8086354E-1,1.6965644E-1,4.069436E-1,-2.0685343E-2,2.153944E-3,-2.5676776E-2,-1.5669895E-2,-3.5328825E-3,-1.1455428E-2,1.6928269E-2,-1.0514407E-2,-1.598004E-2,1.0847292E-2,1.6274894E-2,7.853537E-3,-2.1330114E-2,2.8964959E-3,-2.7450463E-2,1.3529927E-2,2.0866515E-4,-1.778422E-2,1.0029299E-2,-1.2420978E-3,1.2403696E-2,2.0811241E-2,-1.2574854E-2,1.2541532E-2,2.1085996E-2,1.1978036E-3,2.3178881E-2,1.1716391E-2],"categories":[],"categories_nodes":[],"categories_segments":[],"categories_sizes":[],"default_left":[0,0,0,0,0,0,0,0,0,0,0,0,0,0,0,0,0,0,0,0,0,0,0,0,0,0,0,0,0,0,0,0,0,0,0,0,0,0,0,0,0,0,0,0,0,0,0,0,0,0,0,0,0,0,0,0,0,0,0,0,0,0,0,0,0,0,0,0,0],"id":19,"left_children":[1,3,5,-1,7,9,11,13,15,17,19,21,23,25,27,-1,29,31,-1,33,35,37,-1,-1,39,41,43,45,47,49,-1,51,53,-1,55,57,59,61,63,65,67,-1,-1,-1,-1,-1,-1,-1,-1,-1,-1,-1,-1,-1,-1,-1,-1,-1,-1,-1,-1,-1,-1,-1,-1,-1,-1,-1,-1],"loss_changes":[4.0051346E1,6.4272213E0,4.13163E0,0E0,1.0774679E0,1.016425E0,8.3698463E-1,2.014903E0,5.531149E-1,1.1394471E0,1.332716E0,1.01824E0,9.209919E-1,3.827057E-1,4.909612E-1,0E0,2.957381E-1,6.985742E-1,0E0,6.7770433E-1,5.1340467E-1,3.0381536E-1,0E0,0E0,7.319193E-1,1.2518246E0,3.1119013E-1,2.9939693E-1,1.3130157E0,5.2621853E-1,0E0,1.1373758E-3,1.4262412E0,0E0,2.7265923E0,4.0918025E-1,2.0738767E-1,3.2426262E-1,1.2271663E0,7.674712E-1,4.0154743E-1,0E0,0E0,0E0,0E0,0E0,0E0,0E0,0E0,0E0,0E0,0E0,0E0,0E0,0E0,0E0,0E0,0E0,0E0,0E0,0E0,0E0,0E0,0E0,0E0,0E0,0E0,0E0,0E0],"parents":[2147483647,0,0,1,1,2,2,4,4,5,5,6,6,7,7,8,8,9,9,10,10,11,11,12,12,13,13,14,14,16,16,17,17,19,19,20,20,21,21,24,24,25,25,26,26,27,27,28,28,29,29,31,31,32,32,34,34,35,35,36,36,37,37,38,38,39,39,40,40],"right_children":[2,4,6,-1,8,10,12,14,16,18,20,22,24,26,28,-1,30,32,-1,34,36,38,-1,-1,40,42,44,46,48,50,-1,52,54,-1,56,58,60,62,64,66,68,-1,-1,-1,-1,-1,-1,-1,-1,-1,-1,-1,-1,-1,-1,-1,-1,-1,-1,-1,-1,-1,-1,-1,-1,-1,-1,-1,-1],"split_conditions":[4.5888826E-1,2.6977324E-1,6.4442104E-1,-3.4324914E-2,4.4364253E-1,5.404498E-1,7.762812E-1,3.712873E-1,4.486376E-1,5.3015494E-1,6.086518E-1,7.723595E-1,7.868988E-1,3.0410996E-1,4.2423114E-1,-3.4283694E-2,4.518176E-1,4.6434444E-1,-1.799652E-2,5.482124E-1,6.199926E-1,7.162418E-1,-1.414531E-2,3.576324E-2,8.3031756E-1,2.9250047E-1,3.2734156E-1,3.9797974E-1,4.3259636E-1,4.508517E-1,-2.201114E-2,4.6318406E-1,4.706501E-1,2.6387641E-2,5.5477333E-1,6.1510634E-1,6.334723E-1,6.9720787E-1,7.1992934E-1,8.0250764E-1,9.093867E-1,-2.0685343E-2,2.153944E-3,-2.5676776E-2,-1.5669895E-2,-3.5328825E-3,-1.1455428E-2,1.6928269E-2,-1.0514407E-2,-1.598004E-2,1.0847292E-2,1.6274894E-2,7.853537E-3,-2.1330114E-2,2.8964959E-3,-2.7450463E-2,1.3529927E-2,2.0866515E-4,-1.778422E-2,1.0029299E-2,-1.2420978E-3,1.2403696E-2,2.0811241E-2,-1.2574854E-2,1.2541532E-2,2.1085996E-2,1.1978036E-3,2.3178881E-2,1.1716391E-2],"split_indices":[0,0,0,0,0,0,0,0,0,0,0,0,0,0,0,0,0,0,0,0,0,0,0,0,0,0,0,0,0,0,0,0,0,0,0,0,0,0,0,0,0,0,0,0,0,0,0,0,0,0,0,0,0,0,0,0,0,0,0,0,0,0,0,0,0,0,0,0,0],"split_type":[0,0,0,0,0,0,0,0,0,0,0,0,0,0,0,0,0,0,0,0,0,0,0,0,0,0,0,0,0,0,0,0,0,0,0,0,0,0,0,0,0,0,0,0,0,0,0,0,0,0,0,0,0,0,0,0,0,0,0,0,0,0,0,0,0,0,0,0,0],"sum_hessian":[5.6114246E2,2.0180942E2,3.59333E2,4.391373E1,1.5789569E2,1.7283543E2,1.8649757E2,1.3923547E2,1.8660225E1,8.766023E1,8.517521E1,1.0749301E2,7.900457E1,7.347645E1,6.575902E1,7.5116205E0,1.1148603E1,8.1266266E1,6.3939676E0,5.8299587E1,2.687562E1,1.0473241E2,2.7606049E0,7.6450963E0,7.135947E1,2.2953625E1,5.0522823E1,5.0267628E1,1.5491393E1,5.5866065E0,5.5619974E0,9.701458E0,7.1564804E1,7.231414E0,5.1068172E1,1.1634831E1,1.5240789E1,6.725161E1,3.7480797E1,2.0172447E1,5.1187023E1,1.2404955E1,1.054867E1,1.5689028E1,3.4833797E1,2.9639305E1,2.062832E1,7.538763E0,7.95263E0,3.3242166E0,2.26239E0,6.4038405E0,3.2976177E0,5.682966E0,6.5881836E1,3.5021899E0,4.7565983E1,6.6686172E0,4.9662147E0,8.35064E0,6.890149E0,4.711623E1,2.013538E1,4.8591633E0,3.2621635E1,6.695213E0,1.3477235E1,3.7272552E1,1.3914469E1],"tree_param":{"num_deleted":"0","num_feature":"2","num_nodes":"69","size_leaf_vector":"1"}},{"base_weights":[1.3776694E-2,-2.3652984E-1,2.4215461E-1,-4.9807984E-1,-1.4935657E-1,1.336751E-1,3.9116767E-1,-3.4192603E-2,-4.1891465E-1,-2.625331E-1,-7.493972E-2,1.9026503E-1,9.954994E-2,2.9248118E-1,4.7544944E-1,-3.6093846E-1,-3.4935776E-2,-8.2278766E-2,-3.0940065E-1,7.4674897E-3,-9.019737E-2,1.14653274E-1,5.571937E-1,2.8923895E-2,2.0817293E-1,4.13332E-1,8.30662E-2,3.43997E-2,4.4840473E-1,-4.235104E-1,1.5339019E-2,-1.8152985E-1,2.4626484E-2,-3.0971242E-2,-2.8010577E-1,-7.999015E-2,-1.6682742E-2,2.1333085E-1,-7.4446895E-3,3.3619095E-2,1.4998562E-2,-1.5236683E-2,5.1145487E-2,2.5366786E-1,-1.1546638E-2,2.843273E-1,2.860812E-2,-2.8996568E-2,2.3926722E-1,1.9045936E-1,2.4899678E-2,-1.7292457E-2,-3.1621303E-2,8.7074945E-3,-1.3326416E-2,-7.9449354E-4,4.2672805E-3,2.2434443E-3,-1.570995E-2,-5.2564945E-3,2.4213418E-3,3.8856303E-4,1.5021652E-2,-1.2507073E-2,5.585633E-3,8.626633E-3,-1.1704615E-3,1.0869785E-2,2.0336505E-2,3.3023495E-3,-2.6671647E-3,2.1159073E-2,9.268733E-4,8.407594E-3,-3.0447623E-2,1.7625893E-2,-1.3384627E-3,2.9411074E-3,1.0513709E-2],"categories":[],"categories_nodes":[],"categories_segments":[],"categories_sizes":[],"default_left":[0,0,0,0,0,0,0,0,0,0,0,0,0,0,0,0,0,0,0,0,0,0,0,0,0,0,0,0,0,0,0,0,0,0,0,0,0,0,0,0,0,0,0,0,0,0,0,0,0,0,0,0,0,0,0,0,0,0,0,0,0,0,0,0,0,0,0,0,0,0,0,0,0,0,0,0,0,0,0],"id":20,"left_children":[1,3,5,7,9,11,13,-1,15,17,19,21,23,25,27,29,-1,31,33,-1,35,37,39,41,43,45,47,-1,49,51,-1,53,55,-1,57,59,-1,61,63,-1,-1,-1,65,67,69,71,-1,73,75,77,-1,-1,-1,-1,-1,-1,-1,-1,-1,-1,-1,-1,-1,-1,-1,-1,-1,-1,-1,-1,-1,-1,-1,-1,-1,-1,-1,-1,-1],"loss_changes":[3.289829E1,6.186467E0,4.8117733E0,7.1674156E-1,1.7269468E0,3.202722E-1,9.1101074E-1,0E0,5.655966E-1,6.6616535E-1,4.4642055E-1,1.7389336E0,8.506994E-1,1.5032101E0,7.373047E-2,1.9611096E0,0E0,1.981743E-1,4.1330385E-1,0E0,2.6922733E-1,6.658952E-1,1.1958146E-1,5.2595377E-1,4.4115365E-1,6.214857E-1,4.179808E-1,0E0,6.9643116E-1,4.3826914E-1,0E0,3.362319E-1,2.5144503E-2,0E0,6.8837833E-1,3.7830234E-1,0E0,5.442356E-1,7.685673E-1,0E0,0E0,0E0,5.9584326E-1,1.1346078E-1,3.1014368E-2,8.44911E-1,0E0,1.7677103E0,3.082379E-1,1.7873168E-2,0E0,0E0,0E0,0E0,0E0,0E0,0E0,0E0,0E0,0E0,0E0,0E0,0E0,0E0,0E0,0E0,0E0,0E0,0E0,0E0,0E0,0E0,0E0,0E0,0E0,0E0,0E0,0E0,0E0],"parents":[2147483647,0,0,1,1,2,2,3,3,4,4,5,5,6,6,8,8,9,9,10,10,11,11,12,12,13,13,14,14,15,15,17,17,18,18,20,20,21,21,22,22,23,23,24,24,25,25,26,26,28,28,29,29,31,31,32,32,34,34,35,35,37,37,38,38,42,42,43,43,44,44,45,45,47,47,48,48,49,49],"right_children":[2,4,6,8,10,12,14,-1,16,18,20,22,24,26,28,30,-1,32,34,-1,36,38,40,42,44,46,48,-1,50,52,-1,54,56,-1,58,60,-1,62,64,-1,-1,-1,66,68,70,72,-1,74,76,78,-1,-1,-1,-1,-1,-1,-1,-1,-1,-1,-1,-1,-1,-1,-1,-1,-1,-1,-1,-1,-1,-1,-1,-1,-1,-1,-1,-1,-1],"split_conditions":[5.357056E-1,2.9585615E-1,7.20646E-1,1.4438193E-1,4.1816515E-1,6.0806304E-1,8.259325E-1,-3.4192603E-2,2.7455646E-1,3.203491E-1,4.2380235E-1,6.006294E-1,6.764517E-1,7.817639E-1,8.339635E-1,2.7087986E-1,-3.4935776E-2,3.0999002E-1,3.351199E-1,7.4674897E-3,5.335E-1,5.775843E-1,6.040335E-1,6.123151E-1,7.142574E-1,7.532131E-1,7.973717E-1,3.43997E-2,8.590649E-1,2.3947062E-1,1.5339019E-2,2.9793313E-1,3.1849733E-1,-3.0971242E-2,3.4113362E-1,5.1376146E-1,-1.6682742E-2,5.545275E-1,5.8750486E-1,3.3619095E-2,1.4998562E-2,-1.5236683E-2,6.323692E-1,7.0657545E-1,7.1602017E-1,7.4255234E-1,2.860812E-2,7.9530656E-1,8.149999E-1,8.382155E-1,2.4899678E-2,-1.7292457E-2,-3.1621303E-2,8.7074945E-3,-1.3326416E-2,-7.9449354E-4,4.2672805E-3,2.2434443E-3,-1.570995E-2,-5.2564945E-3,2.4213418E-3,3.8856303E-4,1.5021652E-2,-1.2507073E-2,5.585633E-3,8.626633E-3,-1.1704615E-3,1.0869785E-2,2.0336505E-2,3.3023495E-3,-2.6671647E-3,2.1159073E-2,9.268733E-4,8.407594E-3,-3.0447623E-2,1.7625893E-2,-1.3384627E-3,2.9411074E-3,1.0513709E-2],"split_indices":[1,1,1,1,1,1,1,0,1,1,1,1,1,1,1,1,0,1,1,0,1,1,1,1,1,1,1,0,1,1,0,1,1,0,1,1,0,1,1,0,0,0,1,1,1,1,0,1,1,1,0,0,0,0,0,0,0,0,0,0,0,0,0,0,0,0,0,0,0,0,0,0,0,0,0,0,0,0,0],"split_type":[0,0,0,0,0,0,0,0,0,0,0,0,0,0,0,0,0,0,0,0,0,0,0,0,0,0,0,0,0,0,0,0,0,0,0,0,0,0,0,0,0,0,0,0,0,0,0,0,0,0,0,0,0,0,0,0,0,0,0,0,0,0,0,0,0,0,0,0,0,0,0,0,0,0,0,0,0,0,0],"sum_hessian":[5.735003E2,2.7359705E2,2.9990326E2,6.721503E1,2.06382E2,1.7465431E2,1.2524894E2,1.780195E1,4.941308E1,8.086736E1,1.2551464E2,6.398017E1,1.1067414E2,5.9753353E1,6.549558E1,4.2828724E1,6.5843525E0,1.7255932E1,6.3611427E1,7.4347205E0,1.18079926E2,5.413684E1,9.843328E0,6.7834694E1,4.283945E1,3.727098E1,2.2482372E1,4.6344337E0,6.0861153E1,3.9493523E1,3.335204E0,8.586325E0,8.669608E0,3.7526875E0,5.985874E1,1.146036E2,3.4763212E0,2.9526663E1,2.4610178E1,5.6839557E0,4.1593733E0,3.4418502E0,6.4392845E1,3.5362762E1,7.476687E0,2.2106138E1,1.5164842E1,1.3564908E1,8.917464E0,1.0594206E1,5.0266945E1,3.0726755E1,8.766766E0,1.453834E0,7.1324906E0,5.6426883E0,3.0269198E0,5.653534E0,5.4205208E1,9.5992775E1,1.8610828E1,9.111918E0,2.0414745E1,7.7420697E0,1.6868109E1,2.4001055E1,4.039179E1,3.0544699E1,4.8180647E0,2.414352E0,5.062335E0,1.4131423E1,7.974715E0,1.0653463E1,2.9114447E0,6.026805E0,2.890659E0,1.905285E0,8.688921E0],"tree_param":{"num_deleted":"0","num_feature":"2","num_nodes":"79","size_leaf_vector":"1"}},{"base_weights":[-7.121376E-4,-2.9705638E-1,2.3567313E-1,-3.296554E-2,-2.1587045E-1,1.7687032E-1,3.9827132E-1,-3.5365885E-1,-1.5241362E-1,1.01498544E-1,2.3740229E-1,3.7593803E-1,3.4206707E-2,-1.0245589E-1,-3.863317E-1,-7.062081E-2,-1.8108292E-1,1.2085064E-1,-2.7460164E-1,2.5324792E-1,-1.664129E-2,4.8229942E-1,3.5215834E-1,-1.2808769E-2,-2.61975E-2,-3.4097135E-2,-3.4334368E-1,-1.9763544E-1,4.4064835E-2,-2.2322146E-2,-1.6143593E-1,5.8895987E-2,1.641388E-1,-1.8438954E-2,-6.132715E-3,3.0432835E-1,1.8531245E-1,2.6683265E-1,3.465962E-2,-8.544067E-3,3.8229796E-1,5.2431035E-3,-5.511479E-3,-2.1477884E-3,-2.074625E-2,-5.725772E-3,-1.6396992E-2,1.7044893E-2,-3.3996922E-3,-9.788816E-4,-9.72363E-3,6.6870935E-3,-1.8431615E-2,2.6925607E-2,6.3790767E-3,1.3363741E-2,2.6701435E-2,-7.996607E-3,1.1164385E-2,2.2898195E-2,-2.243771E-3,1.6370095E-2,2.1081632E-2],"categories":[],"categories_nodes":[],"categories_segments":[],"categories_sizes":[],"default_left":[0,0,0,0,0,0,0,0,0,0,0,0,0,0,0,0,0,0,0,0,0,0,0,0,0,0,0,0,0,0,0,0,0,0,0,0,0,0,0,0,0,0,0,0,0,0,0,0,0,0,0,0,0,0,0,0,0,0,0,0,0,0,0],"id":21,"left_children":[1,3,5,-1,7,9,11,13,15,17,19,21,-1,23,25,27,29,31,33,35,-1,37,39,-1,41,-1,43,45,47,-1,49,51,53,-1,-1,55,57,59,-1,-1,61,-1,-1,-1,-1,-1,-1,-1,-1,-1,-1,-1,-1,-1,-1,-1,-1,-1,-1,-1,-1,-1,-1],"loss_changes":[3.9413395E1,7.199995E0,2.9220486E0,0E0,1.7423325E0,1.032805E0,2.6840496E-1,4.858637E-1,3.2116342E-1,7.968751E-1,1.2383895E0,2.8906822E-2,0E0,9.5617935E-2,4.8118877E-1,5.710044E-1,4.7436953E-1,2.5982702E-1,3.261909E-2,3.7682915E-1,0E0,3.4453177E-1,1.1361704E0,0E0,8.808644E-2,0E0,1.0821905E0,1.6280073E-1,7.251169E-1,0E0,4.608779E-1,1.4217685E0,7.3322916E-1,0E0,0E0,4.505353E-1,7.717247E-1,4.608044E-1,0E0,0E0,1.3113022E-3,0E0,0E0,0E0,0E0,0E0,0E0,0E0,0E0,0E0,0E0,0E0,0E0,0E0,0E0,0E0,0E0,0E0,0E0,0E0,0E0,0E0,0E0],"parents":[2147483647,0,0,1,1,2,2,4,4,5,5,6,6,7,7,8,8,9,9,10,10,11,11,13,13,14,14,15,15,16,16,17,17,18,18,19,19,21,21,22,22,24,24,26,26,27,27,28,28,30,30,31,31,32,32,35,35,36,36,37,37,40,40],"right_children":[2,4,6,-1,8,10,12,14,16,18,20,22,-1,24,26,28,30,32,34,36,-1,38,40,-1,42,-1,44,46,48,-1,50,52,54,-1,-1,56,58,60,-1,-1,62,-1,-1,-1,-1,-1,-1,-1,-1,-1,-1,-1,-1,-1,-1,-1,-1,-1,-1,-1,-1,-1,-1],"split_conditions":[5.106355E-1,2.6977324E-1,7.762812E-1,-3.296554E-2,3.651135E-1,6.199926E-1,9.717581E-1,2.8088355E-1,4.0175796E-1,6.1510634E-1,7.723595E-1,8.0250764E-1,3.4206707E-2,2.7155074E-1,2.9250047E-1,3.810115E-1,4.0845275E-1,5.5477333E-1,6.1741054E-1,7.058315E-1,-1.664129E-2,7.912466E-1,8.05976E-1,-1.2808769E-2,2.7534562E-1,-3.4097135E-2,3.0410996E-1,3.7629753E-1,3.8650107E-1,-2.2322146E-2,4.3259636E-1,5.4525715E-1,5.571347E-1,-1.8438954E-2,-6.132715E-3,6.9720787E-1,7.122514E-1,7.868988E-1,3.465962E-2,-8.544067E-3,8.640128E-1,5.2431035E-3,-5.511479E-3,-2.1477884E-3,-2.074625E-2,-5.725772E-3,-1.6396992E-2,1.7044893E-2,-3.3996922E-3,-9.788816E-4,-9.72363E-3,6.6870935E-3,-1.8431615E-2,2.6925607E-2,6.3790767E-3,1.3363741E-2,2.6701435E-2,-7.996607E-3,1.1164385E-2,2.2898195E-2,-2.243771E-3,1.6370095E-2,2.1081632E-2],"split_indices":[0,0,0,0,0,0,0,0,0,0,0,0,0,0,0,0,0,0,0,0,0,0,0,0,0,0,0,0,0,0,0,0,0,0,0,0,0,0,0,0,0,0,0,0,0,0,0,0,0,0,0,0,0,0,0,0,0,0,0,0,0,0,0],"split_type":[0,0,0,0,0,0,0,0,0,0,0,0,0,0,0,0,0,0,0,0,0,0,0,0,0,0,0,0,0,0,0,0,0,0,0,0,0,0,0,0,0,0,0,0,0,0,0,0,0,0,0,0,0,0,0,0,0,0,0,0,0,0,0],"sum_hessian":[5.606359E2,2.4865414E2,3.1198178E2,4.422036E1,2.0443378E2,2.3065453E2,8.132726E1,6.302022E1,1.4141356E2,1.0392654E2,1.2672799E2,7.758126E1,3.7460048E0,7.7293644E0,5.5290855E1,3.760129E1,1.0381227E2,9.948618E1,4.4403496E0,1.2384251E2,2.8854795E0,1.0652582E1,6.692867E1,1.7806579E0,5.948706E0,5.1325927E0,5.0158264E1,1.7498444E1,2.0102848E1,5.658818E0,9.815345E1,4.18913E1,5.7594887E1,1.860307E0,2.5800424E0,6.8704315E1,5.5138187E1,6.3896284E0,4.262954E0,3.3921442E0,6.353653E1,2.2272003E0,3.721506E0,9.960318E0,4.0197945E1,1.1830624E1,5.6678195E0,4.9496226E0,1.5153226E1,1.8841467E1,7.931198E1,3.6234947E1,5.6563516E0,3.902257E0,5.369263E1,6.102397E1,7.6803436E0,5.145687E0,4.99925E1,3.670045E0,2.7195835E0,3.0413918E1,3.3122616E1],"tree_param":{"num_deleted":"0","num_feature":"2","num_nodes":"63","size_leaf_vector":"1"}},{"base_weights":[1.3240858E-3,-2.5213277E-1,2.0304632E-1,-4.935826E-1,-1.5312614E-1,9.1868214E-2,3.708727E-1,-3.372531E-2,-4.1612402E-1,-2.535461E-1,-9.8736204E-2,6.324662E-2,2.0310692E-1,2.737086E-1,4.5553604E-1,2.2411058E-3,-4.4045243E-1,-2.0571057E-2,-2.9374388E-1,2.1457773E-2,-1.19983844E-1,8.245851E-2,-1.973952E-1,4.3674397E-1,-1.8105563E-2,3.3293545E-1,1.6045195E-1,3.293067E-2,4.313789E-1,-2.960187E-2,-3.9186496E-1,5.4722754E-3,-9.153749E-2,-3.8504988E-1,-2.0301048E-1,-3.7589508E-1,-9.939887E-2,1.8092485E-2,6.7431144E-2,-2.3682803E-2,-9.851356E-2,8.961198E-3,4.7409898E-1,-1.5233493E-2,4.7176544E-2,2.048952E-2,2.7238506E-1,-4.2782515E-2,2.423048E-1,1.0158936E-3,2.24413E-2,-2.0183672E-3,-2.2314955E-2,-1.2413727E-2,4.7611873E-4,-1.2208826E-2,-2.60035E-2,-5.7957354E-3,-2.256727E-2,-5.170131E-3,-2.255805E-2,-2.7401242E-3,-1.0281714E-2,-2.2870371E-2,3.8626634E-3,3.2485162E-3,-1.1592689E-2,3.4528825E-2,1.8652441E-2,6.2431367E-3,-2.2544558E-3,-3.1681627E-3,1.9554392E-2,4.4520665E-3,-6.454257E-3,2.6483169E-2,8.422933E-3],"categories":[],"categories_nodes":[],"categories_segments":[],"categories_sizes":[],"default_left":[0,0,0,0,0,0,0,0,0,0,0,0,0,0,0,0,0,0,0,0,0,0,0,0,0,0,0,0,0,0,0,0,0,0,0,0,0,0,0,0,0,0,0,0,0,0,0,0,0,0,0,0,0,0,0,0,0,0,0,0,0,0,0,0,0,0,0,0,0,0,0,0,0,0,0,0,0],"id":22,"left_children":[1,3,5,7,9,11,13,-1,15,17,19,21,23,25,27,-1,29,31,33,-1,35,37,39,41,43,45,47,-1,49,-1,51,-1,53,55,57,59,61,-1,63,-1,65,-1,67,-1,69,-1,71,73,75,-1,-1,-1,-1,-1,-1,-1,-1,-1,-1,-1,-1,-1,-1,-1,-1,-1,-1,-1,-1,-1,-1,-1,-1,-1,-1,-1,-1],"loss_changes":[2.8478453E1,5.8254147E0,5.752944E0,7.190285E-1,9.3906116E-1,5.853691E-1,8.8928795E-1,0E0,6.091652E-1,5.6876516E-1,1.354137E0,7.7186185E-1,1.9718121E0,3.483696E-1,3.163433E-2,0E0,1.363926E-1,1.0327503E-1,3.5486746E-1,0E0,5.5488276E-1,5.685964E-1,2.4435914E-1,9.318805E-2,3.9747602E-1,6.708002E-2,3.8462824E-1,0E0,4.2418957E-1,0E0,7.633009E-1,0E0,1.1455594E-1,3.4734893E-1,5.604893E-1,1.1763871E-1,4.8815417E-1,0E0,7.3260313E-1,0E0,2.1360753E-1,0E0,8.289409E-2,0E0,1.3138728E-1,0E0,9.996524E-1,9.46517E-2,2.5430053E-1,0E0,0E0,0E0,0E0,0E0,0E0,0E0,0E0,0E0,0E0,0E0,0E0,0E0,0E0,0E0,0E0,0E0,0E0,0E0,0E0,0E0,0E0,0E0,0E0,0E0,0E0,0E0,0E0],"parents":[2147483647,0,0,1,1,2,2,3,3,4,4,5,5,6,6,8,8,9,9,10,10,11,11,12,12,13,13,14,14,16,16,17,17,18,18,20,20,21,21,22,22,23,23,24,24,25,25,26,26,28,28,30,30,32,32,33,33,34,34,35,35,36,36,38,38,40,40,42,42,44,44,46,46,47,47,48,48],"right_children":[2,4,6,8,10,12,14,-1,16,18,20,22,24,26,28,-1,30,32,34,-1,36,38,40,42,44,46,48,-1,50,-1,52,-1,54,56,58,60,62,-1,64,-1,66,-1,68,-1,70,-1,72,74,76,-1,-1,-1,-1,-1,-1,-1,-1,-1,-1,-1,-1,-1,-1,-1,-1,-1,-1,-1,-1,-1,-1,-1,-1,-1,-1,-1,-1],"split_conditions":[5.072749E-1,3.012854E-1,7.20646E-1,1.4438193E-1,4.0012413E-1,6.764517E-1,8.259325E-1,-3.372531E-2,1.4979956E-1,3.1849733E-1,4.012584E-1,6.6071266E-1,6.982591E-1,7.817639E-1,8.339635E-1,2.2411058E-3,1.8775588E-1,3.04303E-1,3.656874E-1,2.1457773E-2,4.0951192E-1,5.115829E-1,6.6483396E-1,6.8009657E-1,7.036946E-1,7.4255234E-1,7.8984606E-1,3.293067E-2,8.382155E-1,-2.960187E-2,2.0105623E-1,5.4722754E-3,3.0999002E-1,3.4113362E-1,3.928266E-1,4.040974E-1,4.7927812E-1,1.8092485E-2,5.1376146E-1,-2.3682803E-2,6.6845596E-1,8.961198E-3,6.8324125E-1,-1.5233493E-2,7.142574E-1,2.048952E-2,7.532131E-1,7.8816795E-1,7.942637E-1,1.0158936E-3,2.24413E-2,-2.0183672E-3,-2.2314955E-2,-1.2413727E-2,4.7611873E-4,-1.2208826E-2,-2.60035E-2,-5.7957354E-3,-2.256727E-2,-5.170131E-3,-2.255805E-2,-2.7401242E-3,-1.0281714E-2,-2.2870371E-2,3.8626634E-3,3.2485162E-3,-1.1592689E-2,3.4528825E-2,1.8652441E-2,6.2431367E-3,-2.2544558E-3,-3.1681627E-3,1.9554392E-2,4.4520665E-3,-6.454257E-3,2.6483169E-2,8.422933E-3],"split_indices":[1,1,1,1,1,1,1,0,1,1,1,1,1,1,1,0,1,1,1,0,1,1,1,1,1,1,1,0,1,0,1,0,1,1,1,1,1,0,1,0,1,0,1,0,1,0,1,1,1,0,0,0,0,0,0,0,0,0,0,0,0,0,0,0,0,0,0,0,0,0,0,0,0,0,0,0,0],"split_type":[0,0,0,0,0,0,0,0,0,0,0,0,0,0,0,0,0,0,0,0,0,0,0,0,0,0,0,0,0,0,0,0,0,0,0,0,0,0,0,0,0,0,0,0,0,0,0,0,0,0,0,0,0,0,0,0,0,0,0,0,0,0,0,0,0,0,0,0,0,0,0,0,0,0,0,0,0],"sum_hessian":[5.5500305E2,2.4585059E2,3.0915247E2,7.0335754E1,1.7551485E2,1.8689172E2,1.22260735E2,1.8774748E1,5.1561005E1,6.037781E1,1.1513703E2,1.4989299E2,3.699873E1,5.8898563E1,6.336217E1,2.5426912E0,4.9018314E1,9.107139E0,5.1270676E1,3.7121403E0,1.1142489E2,1.4023958E2,9.653417E0,1.752019E1,1.947854E1,3.740054E1,2.1498024E1,3.943912E0,5.941826E1,9.183211E0,3.9835102E1,3.0242462E0,6.082892E0,2.3937925E1,2.7332748E1,7.0104694E0,1.0441442E2,5.979954E0,1.3425963E2,1.5454698E0,8.107946E0,2.9539483E0,1.456624E1,2.9337018E0,1.654484E1,1.3939615E1,2.3460922E1,6.3094535E0,1.5188571E1,2.5073998E0,5.691086E1,5.5752954E0,3.4259808E1,1.8135266E0,4.2693653E0,1.3089467E1,1.0848458E1,2.1321619E1,6.01113E0,2.0310593E0,4.97941E0,7.460991E1,2.980451E1,1.6293113E0,1.3263031E2,3.8726144E0,4.2353325E0,2.7789536E0,1.1787287E1,8.790275E0,7.7545643E0,6.249773E0,1.7211151E1,2.4838052E0,3.825648E0,1.8432775E0,1.3345294E1],"tree_param":{"num_deleted":"0","num_feature":"2","num_nodes":"77","size_leaf_vector":"1"}},{"base_weights":[2.2298284E-3,-3.0205038E-1,2.3410857E-1,-3.4246255E-2,-2.215388E-1,1.5960214E-1,4.5486063E-1,-3.336299E-1,-1.500574E-1,9.946424E-2,2.4521844E-1,3.1539056E-2,4.2961884E-1,1.3865122E-1,-3.5263476E-1,-1.1392603E-1,-1.9283814E-2,1.8941475E-2,9.127722E-2,3.6065197E-1,1.1638985E-1,-5.137512E-3,4.4769585E-1,-4.356652E-3,1.3948785E-2,-5.28866E-1,-3.264648E-1,-1.7624795E-1,4.611414E-2,-4.1181404E-2,1.1104237E-1,4.369306E-1,2.8232363E-1,-1.584523E-1,1.791327E-1,3.4594598E-1,2.4284536E-2,-8.64794E-3,-3.2865692E-2,6.9702524E-3,-1.740823E-2,-6.6027963E-3,-1.6331747E-2,1.4101237E-2,-9.344812E-3,1.6455086E-3,-2.54374E-2,2.4435556E-2,4.832456E-3,1.473851E-2,3.0552182E-2,-2.8467667E-3,1.9463642E-2,-1.0376724E-2,-2.3981452E-3,2.0039303E-2,2.126904E-3,2.4287662E-2,3.7889287E-3],"categories":[],"categories_nodes":[],"categories_segments":[],"categories_sizes":[],"default_left":[0,0,0,0,0,0,0,0,0,0,0,0,0,0,0,0,0,0,0,0,0,0,0,0,0,0,0,0,0,0,0,0,0,0,0,0,0,0,0,0,0,0,0,0,0,0,0,0,0,0,0,0,0,0,0,0,0,0,0],"id":23,"left_children":[1,3,5,-1,7,9,11,13,15,17,19,-1,21,23,25,27,-1,-1,29,31,33,-1,35,-1,-1,37,39,41,43,45,47,49,51,53,55,57,-1,-1,-1,-1,-1,-1,-1,-1,-1,-1,-1,-1,-1,-1,-1,-1,-1,-1,-1,-1,-1,-1,-1],"loss_changes":[3.900781E1,7.2189007E0,5.08786E0,0E0,1.5447311E0,1.1913462E0,7.8178406E-2,7.3720646E-1,1.0061965E0,2.864952E-1,1.396667E0,0E0,7.379608E-1,1.4103869E-1,1.6864204E-1,1.0890279E0,0E0,0E0,3.6508334E-1,1.78648E-1,8.422197E-1,0E0,1.0154152E-1,0E0,0E0,2.4999595E-1,7.263341E-1,4.7661233E-1,1.7659028E0,6.6140807E-1,6.0557294E-1,4.085393E-1,1.029546E0,4.049167E-2,1.1604768E0,8.1053615E-1,0E0,0E0,0E0,0E0,0E0,0E0,0E0,0E0,0E0,0E0,0E0,0E0,0E0,0E0,0E0,0E0,0E0,0E0,0E0,0E0,0E0,0E0,0E0],"parents":[2147483647,0,0,1,1,2,2,4,4,5,5,6,6,7,7,8,8,9,9,10,10,12,12,13,13,14,14,15,15,18,18,19,19,20,20,22,22,25,25,26,26,27,27,28,28,29,29,30,30,31,31,32,32,33,33,34,34,35,35],"right_children":[2,4,6,-1,8,10,12,14,16,18,20,-1,22,24,26,28,-1,-1,30,32,34,-1,36,-1,-1,38,40,42,44,46,48,50,52,54,56,58,-1,-1,-1,-1,-1,-1,-1,-1,-1,-1,-1,-1,-1,-1,-1,-1,-1,-1,-1,-1,-1,-1,-1],